0.0217094 0.663887 -0.382866 0.695569 -0.519478 -0.57363 0.593864 0.724759 0.425895 0.408133 0.592889 -0.0177365 -0.807975 0.601488 0.538934 -0.42735 -0.149121 -0.709146 0.575204 0.184797 -0.455395 -0.956076 0.387268 -0.101788 0.179512 0.573643 -0.886746 -0.647633 0.400988 0.252346 -0.520955 -0.556895 -0.066605 0.138674 -0.879277 0.419743 0.530135 0.667241 0.119876 -0.0106872 0.110635 -0.239827 0.924665 0.315403 -0.786736 0.444625 0.876421 0.177391 0.795325 0.50121 -0.678771 -0.70118 0.570108 0.754027 0.248984 -0.215469 0.316707 0.321963 0.127862 -0.306001 -0.433514 0.59963 0.185332 0.511125 -0.28026 0.313031 -0.0768371 -0.67163 -0.0223339 1.04383 0.321627 -0.908711 -0.310843 0.182661 0.379178 -0.0573233 -0.307663 0.282726 -0.891497 -0.545214 -0.238979 -0.593161 -0.194387 -0.655679 -0.799064 0.977609 0.104745 0.491183 0.246159 -0.763107 -0.778452 0.895081 0.876463 0.392528 0.369196 -0.371663 -0.352123 -0.760363 -0.0925723 0.609864 -0.693985 -0.787949 0.723983 -0.0457728 0.41156 0.0834399 0.888677 -0.908813 -0.615815 1.03033 -0.471475 0.177442 -0.550913 0.252847 0.48187 -0.355117 0.206842 -0.410884 -0.826323 -0.533145 
0.660816 0.0762792 -2.93457 1.09293 4.28058 1.80432 0.770091 -2.48518 -0.465442 -2.74754 
-0.212037 -0.632058 -0.620223 -0.313289 0.767752 0.701425 0.246052 -0.599495 0.965035 -0.697814 -0.929443 -0.792374 -0.628433 0.589917 0.337643 0.892623 0.035975 0.0276566 0.787235 0.0221443 0.38426 -0.684933 -0.808857 0.916665 0.921855 0.482672 -0.950505 0.0860215 -1.18957 -0.514063 0.428163 0.217048 -0.276758 0.77576 0.841787 -0.501136 0.488464 0.164099 -0.142478 0.424037 0.302065 -0.104022 0.609706 0.803824 -0.290761 -0.0219365 0.60352 0.36068 1.04114 0.495044 -0.43241 0.0757461 0.832717 -0.209296 -0.368336 0.634184 -0.305069 -0.0544903 -0.433179 0.0342723 -0.274054 0.762165 -1.11591 0.662522 1.13621 -0.303206 -0.588257 -0.170329 0.265878 0.571203 -0.341687 -0.224423 0.936976 -0.630686 -0.375937 -0.398649 0.259008 -0.79851 0.952464 0.206602 1.27734 -0.646062 -1.30155 -0.193626 1.06368 0.305313 1.09712 -0.803749 -0.382633 1.07995 -0.181597 0.0848524 0.721549 1.29615 -1.13059 1.62847 0.761706 -0.00496685 -0.664618 -0.992918 0.164469 0.561385 2.09993 1.04959 0.994994 -1.84514 -1.13953 0.000154993 0.175901 -0.507582 -0.793847 -0.615482 -0.0822171 -0.517956 -0.875122 -0.606464 0.32569 0.383098 -0.498654 -0.0728142 -0.24803 1.16495 1.92583 -1.17509 0.771824 -0.829642 -0.824396 1.07458 -0.80272 -0.065302 0.917717 -0.747442 -0.417117 0.863036 -1.04016 0.785155 -0.898432 0.0114031 0.541702 0.0416757 0.503574 0.661739 0.143514 -0.521023 -0.819342 0.342086 -0.193918 0.431992 -0.248276 0.296446 -0.592536 -0.988217 0.0182313 -0.924849 0.164968 -0.691782 -0.800334 0.705958 0.209618 0.109605 -0.290837 0.0606517 0.663745 0.273216 0.790998 -0.66228 -0.264165 -0.0199824 0.692096 1.36752 -0.864758 0.158887 1.20147 0.331145 0.230971 0.232773 -0.41497 -0.564635 0.0343259 0.210496 0.665645 0.357071 0.369854 -0.164283 0.47826 -0.461843 0.00353061 0.69991 -0.69273 -0.758729 -0.467531 1.49631 -0.385093 -0.454709 0.338169 -0.10145 0.131903 0.61964 -0.124081 0.333298 0.416138 0.83589 0.863608 -0.149162 0.218959 0.473402 -0.583569 0.801942 0.82658 0.421785 0.186902 0.509687 -0.145196 -0.416301 -0.621307 -0.621917 0.0874951 0.285548 -0.915846 0.32927 0.948068 -0.0178454 -0.658335 0.0747554 0.57081 0.638074 0.716598 -0.406139 0.692566 0.208275 0.57024 -0.0104304 0.0282734 0.477907 0.82307 -0.791883 -0.0456905 -0.754104 -0.968547 -0.231735 1.44203 -1.09563 -0.996029 -0.976044 1.02913 0.000377753 0.799672 -0.44559 1.14946 0.0405886 0.44666 -0.0179256 0.421043 -0.0136508 -0.730807 1.1792 -0.362849 1.22709 -1.36205 -0.537449 -0.328773 1.98043 -0.0706689 -0.614514 -0.111677 0.21764 0.384873 -1.29011 0.332791 -0.60894 0.0669926 0.349376 0.54645 0.342779 0.916251 0.379413 0.912057 -0.129008 -0.699118 0.784902 0.901445 -0.413655 0.146974 0.792699 0.631066 0.607173 0.324891 -0.426906 0.451971 0.587128 0.00475631 -0.95518 -0.448915 0.133801 -0.758303 -0.025859 -0.749538 0.0874305 0.623774 1.35259 0.349726 -0.802212 0.249474 -0.492853 0.567072 -1.00092 -0.840863 0.609666 0.873533 0.300188 -0.282423 -0.0509816 -0.171198 -0.87709 0.725514 -0.148023 2.4987 -0.9266 1.02278 0.452947 0.108336 -0.581773 0.673998 -0.33153 -0.401859 -1.13647 0.113979 -0.0710553 0.660643 1.00626 0.249457 -0.103781 -0.992178 -0.328542 -0.416808 1.07319 0.0283464 1.12157 -0.628628 0.183805 -0.928979 -0.880834 0.114804 0.064329 -0.458253 -0.24156 0.69734 -0.569751 0.740496 -0.122833 1.27025 -1.02164 0.643786 1.41765 -1.27899 -0.163354 -0.635971 -0.178961 0.712832 0.198448 0.257459 -0.298039 -0.569602 0.171834 -0.0363 0.829446 -0.265318 -0.599369 0.43944 0.562881 -0.170188 0.285438 0.960051 -0.260978 0.620842 -1.1325 1.36634 -1.02846 -0.236356 -0.0904897 0.0708274 -0.28299 0.648557 -0.641211 -0.647501 -0.773953 -0.243376 -0.257292 -0.0678576 -0.602506 -0.474797 -0.669198 0.112302 -0.0945068 0.549542 -0.836279 -0.20361 -0.769247 -0.480586 -0.792349 0.870081 -0.810661 0.661127 0.644335 0.00344411 -0.78432 0.905911 -0.434018 -0.582166 -0.412196 0.928132 0.521917 0.172707 0.579039 0.832278 0.502758 0.42984 -0.311121 -0.594907 -0.133105 1.0938 -0.539385 -0.500676 -0.497668 0.718086 -0.69239 -0.893803 -0.0812242 -0.188888 -0.256549 -0.268788 -0.254949 0.0548517 -0.596562 -0.605235 -0.96878 -0.393242 -0.702266 -0.409104 0.0353018 -0.135409 -0.520092 -0.413959 -0.925473 -0.931626 -0.430353 0.64464 0.534915 0.234129 0.856368 -0.493932 -0.922519 -1.47764 -0.0287563 0.0693635 0.826879 -0.369585 0.13263 -0.785221 -0.433409 0.688846 0.392512 1.17405 -0.29388 -1.40808 -0.46782 1.35064 -1.0345 -0.567436 -0.49038 0.738041 0.290751 0.875948 -0.678368 0.379216 0.930428 -0.230665 -0.0149869 0.496547 -0.982285 -0.0866698 0.851994 -0.717827 0.608785 0.348571 -0.181675 -0.950549 0.329719 0.633072 -0.05461 -0.656127 0.449412 -0.521722 0.9345 -0.785864 -0.244919 -0.860049 0.0347841 0.389514 -0.541006 -0.553108 0.0992183 0.686981 -0.606053 0.304673 0.205203 -0.662701 -0.69556 -0.954851 0.630306 -0.750665 -0.0110803 0.592814 -0.443523 -0.392891 -0.099519 0.333104 -0.380182 -0.734198 0.0128953 0.387278 -0.513429 -0.293892 -1.01512 0.307244 -0.533424 0.341671 -0.569022 0.155511 -0.691029 1.22151 -1.07988 -0.0736483 0.0774195 -0.88851 -0.286162 0.310904 -0.078322 0.0649615 1.13028 -0.57049 0.363443 -0.0468304 -0.950319 0.970015 0.551332 -0.0734212 0.188683 -0.764648 0.159043 -0.701215 0.79218 0.71632 -0.307305 -0.922985 -0.655286 0.281002 -0.0282449 -0.0370903 -0.113141 0.361031 -0.941578 -0.0577008 -0.171041 -0.0845938 0.375854 0.724328 -0.251671 -0.993578 -0.156677 -0.753745 -0.801165 -0.397562 -0.0403492 0.0986324 0.14472 0.62558 -0.251983 -0.254241 0.947782 -0.492422 0.75303 0.24248 -0.741935 -0.516345 0.318937 -0.41894 0.713487 -0.71436 0.531577 -1.00053 0.97716 0.523546 0.0296174 -0.0047048 0.262672 -0.50951 -1.60244 1.92672 -0.796076 0.179527 0.947143 0.596676 0.104083 0.52927 0.898058 0.638751 -0.0110427 -0.0335766 0.0653356 -1.20917 1.33839 -0.0852637 0.422286 1.1001 0.00555708 0.230133 -0.298395 0.237025 -0.294734 -1.53788 1.07604 -0.39751 0.694622 -0.959872 1.43765 0.253572 -1.53927 1.66659 -0.676786 0.0394214 -0.286897 0.385793 -0.570301 -0.976982 0.104257 -0.751553 0.520095 -0.892641 0.400552 -1.04699 -1.01593 0.908485 1.09074 -0.512927 -0.453496 -1.94955 1.42152 0.86303 -0.204668 -1.12081 0.663079 -0.657627 2.22967 -0.00820521 1.26423 0.184566 -0.0865891 0.234228 0.292154 -0.287622 -0.00976455 0.525399 -0.896277 0.448247 0.5233 0.189857 0.628947 0.0769557 0.268024 0.103356 0.573403 0.80273 -0.774694 -0.161526 -0.884312 0.0684039 0.0308245 0.567585 -0.355912 -0.572728 -0.728179 -0.773205 0.0464374 -0.917798 0.48683 -0.230185 0.197526 -0.446966 -0.165707 -0.940609 0.24733 0.782722 0.581236 0.362555 0.371116 0.123385 -0.515174 0.0197144 -0.797221 0.72516 -0.855727 0.598194 0.674453 -0.68939 -0.418301 0.825738 0.268946 0.662187 0.48021 0.796713 -1.01021 0.790794 0.917502 0.159367 0.828743 0.251312 -0.782328 0.00800454 0.646645 0.136098 0.0549877 -0.0779016 0.0775125 -0.389112 -0.765254 -0.567743 0.723202 -0.270667 0.449349 0.739856 -0.537968 0.597136 0.656658 -0.72834 0.72864 -0.745034 -0.905155 0.0530188 0.73603 0.326278 -0.290656 0.598355 0.612636 0.00200553 0.258523 0.0602932 0.728538 0.248727 -0.796946 0.435482 -0.631428 0.134969 -0.417394 0.693225 0.968021 -0.205799 0.623549 0.556705 0.409181 0.299569 0.476838 0.949121 -0.166763 0.185084 -0.80904 -0.444581 0.301403 -0.788302 0.548272 -0.510159 0.430905 -0.245825 -0.320383 -0.317382 1.34632 -1.0235 -0.626782 -0.218189 0.575481 -0.321256 -0.287677 0.921161 -0.066662 -0.0419275 -0.0961367 0.202321 1.55749 0.096325 -0.384053 0.621887 -1.02784 -0.644089 -0.119008 -0.806281 1.35594 0.702506 0.022572 0.410361 1.271 0.894949 -0.797341 -0.0604673 0.487044 0.740785 -0.710889 -1.11886 0.12399 -0.251433 0.88521 -0.479059 -0.0657529 -0.548747 -0.977425 -0.153552 0.35681 -0.0580952 -0.849967 0.727649 0.729695 0.205109 -0.11901 -0.795584 0.57519 -0.474423 0.129006 -0.10538 0.642739 -0.272753 0.716508 0.506468 1.0728 -0.401784 -0.18138 0.204913 -0.0907528 0.831742 -1.03724 0.0521795 -1.63536 0.507579 -0.182078 0.0897228 -0.663187 -0.340122 1.70169 1.02408 0.410495 1.25831 0.204292 0.788631 -0.0859638 -1.02697 0.336492 -0.160337 0.120678 0.464152 0.480654 -0.691373 0.331776 0.571781 -0.806545 0.23884 0.645222 0.33099 -0.409469 -0.174723 -0.126929 -0.407019 0.14715 0.0222581 -0.437959 1.20947 0.181383 -0.501392 -1.13382 -0.516119 0.286261 -0.925452 -0.775338 -0.949838 -1.24957 -0.515349 0.703144 1.18905 1.00197 -0.325425 0.0586964 -0.059342 1.28156 -1.60657 -0.45919 0.983754 1.59516 -1.33936 0.287389 -1.08704 0.229356 0.355896 0.308956 -0.28092 0.245513 0.169712 -0.361852 0.767672 0.855077 0.325418 -0.758797 -0.567167 0.805191 -0.438846 -0.38041 0.794296 -0.757561 -0.164494 0.979136 -0.84581 0.929878 -0.163719 0.701531 -0.464789 1.12361 -0.078628 0.518242 -0.268889 -0.287047 -0.745888 0.222576 0.331779 0.0743045 0.553487 0.74922 -0.999437 -0.260785 -0.559418 0.761456 -0.456526 0.689942 -0.976036 0.0258849 0.508778 -0.287095 0.448896 0.503207 -0.0588385 -0.64727 0.440611 0.0137007 -0.698432 -0.814186 -0.846713 1.13053 0.206543 0.435619 0.540812 1.05556 0.384348 -0.1394 -0.843005 0.644483 -0.0483696 -0.691469 0.670875 -0.0438153 0.0443286 -0.948177 -0.271107 0.631516 0.75719 -0.257933 -0.365011 0.252176 0.425243 -0.770542 -0.264719 -0.594519 -0.512592 -0.835049 0.373741 -0.25893 -0.596455 -0.916554 -0.276658 0.683991 0.507113 -0.777925 0.610552 -0.592132 -0.568621 -0.616183 -1.01973 -0.0299059 -0.421119 -0.755723 0.651605 0.253352 -1.60288 0.857194 -0.332078 1.1562 0.806176 0.994222 0.0910285 0.241076 -0.808083 0.804393 0.588152 -0.41143 -0.899124 0.00114129 0.446059 -0.449419 -0.212621 -0.579438 -0.802921 -0.0300046 -1.22391 0.0353118 0.257216 0.134146 -1.3044 0.793456 -0.83557 -0.644155 0.428575 -1.24751 -1.17395 1.46405 0.733784 1.33392 0.449849 -0.0389385 0.477514 0.601431 -1.06843 0.688407 -0.319567 -1.2635 -0.400901 -0.47998 0.15794 0.929664 -0.219252 -0.770809 -0.938293 -0.0281711 -0.195793 -0.699652 -0.258671 0.804924 0.264764 -0.418061 -0.296834 0.150874 0.675036 0.412635 1.04995 -1.01537 0.0519534 -1.46424 -0.922291 0.332661 -0.672289 0.940365 0.72327 -0.139751 0.927364 0.97898 0.00680503 -0.498446 0.0707801 -0.998127 -0.151293 -0.494121 -1.17745 -0.814222 -1.26434 0.579426 -0.0985191 -0.00219378 0.465015 0.20955 -0.168201 -0.561533 0.227448 1.49302 -0.0715624 -1.43924 1.2259 -0.553217 -0.131385 1.39551 -1.18268 1.63135 0.396579 0.66695 -1.29654 1.71298 0.780179 0.793527 -0.932459 -0.827986 0.899408 -0.517708 0.316948 -0.685583 -0.0907785 0.3246 0.480642 0.6633 -2.02078 -0.0339515 0.569445 0.646993 -0.594022 0.511734 0.047364 0.562874 0.0199776 0.051996 -0.674072 -0.445584 -0.47971 -0.502708 -0.529417 -0.833009 -0.638324 0.220337 0.684821 -0.751791 -0.226405 0.249801 -0.681593 0.0757145 -1.31588 0.683248 1.31854 -0.0549542 -0.72795 0.730325 -0.867398 0.294438 -0.0612156 0.442879 0.776307 0.407251 0.322217 -1.29677 -0.47612 1.20818 0.159236 0.76779 -0.73786 0.67176 -0.689354 -0.219267 0.80041 -0.369456 0.977845 0.464381 -0.0493012 -0.0125826 0.289649 0.252578 0.881082 0.370626 0.0345542 0.104347 -0.486689 -0.923269 0.816056 0.356273 0.237065 0.0247729 0.704563 -0.658621 -0.0532093 -0.600887 -0.364351 -0.641144 -0.73348 0.653398 -1.49679 -1.39011 1.72639 -1.23229 1.14411 1.55739 -1.07734 -0.0277687 -0.283876 0.952428 -0.829897 0.943441 0.279576 -0.862651 0.364025 -0.704578 0.173731 0.905189 
0.962908 -0.0358134 0.578143 0.183359 0.00251842 0.00348717 0.19898 0.30492 -0.189813 0.457879 0.659584 0.129278 -0.694341 0.0164529 -0.93706 0.966421 -0.0153579 0.283161 0.529336 0.788603 0.587059 -0.301574 0.482271 -0.75151 -0.285064 -0.146925 0.480434 -0.743768 0.946865 -0.637865 0.904062 0.923122 0.337604 0.512618 0.0947163 -0.655982 -0.506782 -0.736255 0.632903 0.325329 0.74369 0.324505 -0.576477 -0.939962 -0.754932 -0.524857 -0.980039 0.303654 0.796805 0.580277 0.0663327 0.357349 -0.705158 -0.421857 0.639346 0.0322755 0.422823 0.0929006 0.282681 0.354319 0.450487 0.182459 0.310393 -0.20457 -0.316797 -0.592328 0.134325 0.227585 -0.330181 -0.232171 -0.444546 -0.584566 -0.981827 -0.0611836 -0.542299 -0.710796 0.455801 -0.50581 0.585272 0.234887 -0.942551 -0.363036 -0.377676 -0.636963 0.241463 -0.787823 0.379747 -0.354265 0.27049 -0.335008 -0.975608 -0.225443 0.874155 0.323581 0.546116 -0.421178 0.694041 -0.353606 0.774691 -0.644969 0.428717 -0.680537 -0.218155 0.422208 0.268817 0.229078 0.704381 -0.283434 0.737332 0.310499 0.936492 0.815434 0.955811 -0.490229 -0.847585 0.19327 -0.29696 0.533858 0.863894 -1.01719 -0.829726 0.862554 -0.255526 -0.918381 0.209186 -0.702305 -0.354916 -0.104152 -0.0429216 -0.606727 0.235213 -0.636408 -0.277363 -0.973776 0.785134 0.994961 0.201029 0.468978 -0.331825 -0.028386 -0.223595 -0.38971 -0.236534 -0.282139 0.120705 -0.0837896 0.917506 0.852928 -0.549041 0.771724 0.845695 -0.35786 0.646804 -0.380446 -0.295584 -0.139934 -0.103855 0.316855 0.737873 0.875346 0.732529 0.00404041 -0.793129 -0.531969 -0.0609322 0.983969 -0.541128 -0.786777 0.489035 0.155972 0.159359 -0.760499 0.78044 0.951801 -0.00985585 -0.0745356 -0.138104 -0.112589 -0.228099 0.295915 -0.349916 -0.382061 0.965085 -0.69667 0.223403 -0.324152 0.157523 -0.830728 0.986366 -0.102611 -0.951615 0.720569 0.828964 -0.783881 -0.82874 -0.206899 -0.759948 -0.356765 -0.000489371 0.712341 0.786418 -0.856111 0.980887 0.574864 -0.878986 -0.0768656 -0.516342 -0.0348695 0.77176 0.259482 -0.712946 -0.526815 0.90049 -0.759568 -0.246708 0.142293 -0.124777 0.877498 0.281703 -0.148619 -0.210859 0.315481 -0.415192 -0.406661 0.54549 -0.254014 0.3802 0.776307 0.399711 -0.596356 0.475014 0.207236 -0.448401 0.408554 -0.243898 -0.330638 -0.688286 0.240097 0.659708 -0.908112 -0.530935 0.920692 -0.454143 -0.592672 -0.815041 0.3117 0.529373 0.0525438 0.202343 -0.200218 0.887619 0.970213 -0.882352 -0.519705 -0.435676 0.666622 0.174553 0.923345 0.400669 -0.387973 -0.679198 -0.118436 0.792903 -0.142325 -0.710906 -0.452127 0.533415 -0.368777 0.79082 0.182256 -0.26886 -0.702814 0.116891 0.315566 -0.331998 0.306588 -0.394028 -0.830245 -0.658839 0.83179 -0.0200106 -0.739146 0.769724 0.110928 -0.347929 -0.679155 -0.224931 0.900149 -0.713729 -0.797554 -0.514674 -0.419606 0.101928 -0.687335 0.471727 0.414342 -0.147487 -0.0119156 -0.960121 -0.3726 -0.841357 -0.224195 -0.0622355 0.281415 -0.930771 0.610542 -0.419098 -0.269771 0.771829 -0.0775048 -0.435937 -0.246618 0.108755 -0.707043 0.846174 0.785874 -0.338205 -0.368894 0.678132 -0.0729712 -0.177827 -0.852106 0.540634 0.930975 -0.515985 -0.0328523 0.331643 0.320091 0.91025 0.372583 0.970966 -0.880654 -0.830344 -0.106203 0.376771 -0.736549 -0.538825 0.923504 -0.0374909 -0.782193 -0.139468 0.507134 -0.012972 0.940876 0.822186 -0.169635 0.723265 -0.526608 0.465325 0.428904 0.391226 -0.680067 0.579841 -0.114595 -0.776696 -0.93931 0.826135 0.554766 0.404256 0.743315 -0.102659 0.348886 0.822545 0.110885 -0.731085 0.235471 0.343098 -0.278535 0.170804 -0.686773 -0.0861214 -0.990893 0.80598 0.910152 0.954176 0.644758 -0.312125 0.655306 -0.926369 -0.797933 0.0751586 0.471205 -0.511606 -0.360508 -0.64165 -0.282492 -0.297459 -0.787303 -0.727703 -0.900126 0.953378 0.219472 0.465919 0.84846 -0.718629 0.734969 0.0567608 0.625771 -0.560809 -0.748102 0.917878 0.401242 -0.783402 0.751011 0.226544 -0.836383 0.40898 1.00154 0.863524 0.494935 -0.824189 -0.0905649 -0.00934909 -0.291175 0.585153 0.365788 0.411259 -0.721387 0.572037 0.664773 -0.640162 0.536415 -0.104186 0.830446 0.344998 0.173352 0.560312 -0.518642 -0.227074 1.0003 -0.264497 -0.307471 0.319455 -0.0845157 -0.576386 -0.42495 0.131975 0.819648 -0.431997 -0.0300397 0.29599 -0.273583 0.916885 -0.686268 0.456761 0.458792 0.655548 -0.153001 0.668817 0.227646 -0.457475 -0.905549 -0.209051 0.416707 0.897252 -0.81544 -0.452048 0.420103 -0.369633 0.301044 0.4365 0.333705 0.996114 -0.267134 -0.716007 -0.561655 0.295881 0.397583 -0.735894 0.866192 -0.633438 0.616449 -0.376561 -0.74592 0.882048 -0.922255 0.659046 0.54307 -0.0507558 0.343898 -0.257643 0.471141 0.394383 0.576064 -0.0869452 0.33271 0.719022 0.452076 -0.253264 -0.630226 -0.257905 -0.825121 0.717836 -0.25558 -0.0972333 0.998465 0.1432 -0.819434 0.358288 0.444988 -0.941424 0.729864 0.0284827 -0.331799 0.959377 -0.075318 -0.256992 0.653137 -0.53696 0.693304 -0.0177431 0.221623 0.17886 -0.536539 -0.218686 -0.904507 0.766703 -0.472315 0.525361 -0.444428 -0.139538 -0.696877 -0.318575 -0.415408 -0.0275114 0.58547 -0.393563 -0.806324 0.801183 0.964844 0.617923 0.830957 0.711907 -0.314423 -0.466668 0.700136 0.594529 0.267647 0.345905 -0.949377 -0.0532632 -0.64811 0.296283 -0.869375 -0.226397 -0.909637 -0.783176 -0.374922 -0.429884 0.743832 0.183139 0.43497 0.965809 0.831284 -1.00253 -0.0335062 0.463781 -0.427807 0.149182 0.230414 -0.468455 -0.247506 0.106113 -0.742525 0.454071 0.601654 0.944884 0.0478139 -0.196026 0.312212 0.104577 0.813489 0.678294 -0.612141 0.917778 -0.499985 -0.57 -0.901712 0.0893123 -0.0414585 0.856108 -0.766253 -0.594771 0.798214 -0.894232 -0.570251 -0.245419 0.547235 -0.00508116 0.899366 -0.209286 0.600647 -0.309965 0.864718 0.819398 -0.850696 0.416699 0.771797 0.200105 -0.764964 0.0374894 -0.707141 -0.977066 -0.254873 -0.295954 0.966498 0.216652 0.127198 -0.970172 -0.693627 -0.857613 0.903122 -0.43689 -0.485659 0.698744 -0.329142 -0.0662078 -0.567095 -0.810518 0.96306 -0.643828 -0.016389 0.538235 0.0349043 -0.192123 0.378631 0.189317 -0.72191 0.139559 -0.616904 -0.499261 -0.850362 -0.302948 -0.419641 -0.0798585 0.40363 -0.473843 -0.872608 -0.489272 -0.377086 -0.565194 -0.361341 -0.510146 0.00866264 0.0890722 -0.814828 0.67493 -0.919827 -0.350091 0.887557 -0.965641 -0.0193578 -0.121104 0.603022 -0.95507 0.743831 -0.0365719 0.2094 -0.98503 -0.901013 0.594785 -0.470961 -0.685239 -0.70234 0.119361 0.257461 0.692727 0.691324 0.35355 -0.793223 -0.68435 0.792359 -0.228967 -0.23199 -0.220606 0.888616 -0.00833229 -0.527329 0.949474 0.595233 -0.64487 -1.02597 -0.360574 0.237695 0.59518 -0.360272 -0.0310124 -0.425383 0.807138 0.0268237 -0.33813 0.461075 0.558396 -0.0376495 0.731169 -0.308131 -0.840916 0.39223 -0.652415 0.467381 0.608528 -0.369287 0.268626 -0.637185 0.43336 -0.918033 -0.761602 -0.581686 -0.478937 -0.769675 -0.971389 -0.0616342 -0.796035 -0.397831 -0.874836 0.805779 0.232184 0.1085 -0.592716 0.0472592 -0.934158 0.0127024 -0.483653 0.654965 1.0025 -0.765857 -0.669372 -0.843455 0.619178 -0.376245 0.666969 0.220214 0.301767 -0.0561485 0.578406 -0.253185 -0.00420761 0.799154 0.117118 0.559175 -0.988852 0.15205 -0.535703 -0.797115 0.761382 -0.39267 -0.989724 0.0296785 0.716286 -0.634033 -0.89769 0.735006 0.419963 -0.390421 0.434073 0.418057 -0.183785 0.695152 0.555569 -0.523788 -0.605226 0.228915 0.680135 0.716497 -0.922111 0.241369 -0.577284 0.137359 0.0640959 0.604411 -0.320046 0.046393 -0.230317 0.173319 0.282881 -0.43161 0.774657 0.24685 0.590823 0.458543 0.646963 0.661947 0.292895 0.0687263 -0.702892 -0.245237 -0.517369 0.143723 -0.52849 -0.957625 0.620894 -0.136911 0.18651 0.24029 -0.437322 0.298926 -0.480943 0.0543735 -0.570811 0.564688 -0.34782 0.0885727 -0.351318 0.416104 -0.700391 0.85366 0.959437 -0.930471 0.116593 0.54657 0.549803 -0.172829 0.239244 -0.157038 0.853417 0.553044 0.545962 -0.70041 -0.337656 -0.984027 -0.646006 -0.711982 -0.122566 0.506599 0.529555 0.43008 -0.195103 -0.963103 -0.524449 0.289095 0.589693 0.135313 -0.646359 -0.879315 -0.498825 -0.355759 -0.965064 -0.524937 -0.203793 0.147813 -0.991249 -0.76126 0.912686 0.282468 0.106439 0.797881 -0.23601 -0.353314 -0.853617 0.483899 -0.466315 -0.553966 0.61594 0.421336 0.958836 0.275997 -0.122818 -0.231832 0.286248 0.407034 0.99367 -0.123005 -0.447694 -0.65924 0.120957 0.0431667 -0.0825783 0.115473 0.528026 0.607166 -0.746151 0.705616 0.968745 -0.740067 -0.18262 0.0335945 -0.963975 0.651933 0.696466 -0.82566 0.110315 -0.649725 -0.429718 -0.138468 0.810564 -0.444747 -0.81206 -0.221214 0.324698 0.440849 -0.800294 0.301976 -0.665405 -0.231427 0.661314 0.398375 0.807152 -0.3036 -0.490247 0.24726 -0.672283 -0.240845 -0.121102 -0.712252 -0.0648244 0.695838 0.343014 0.0978123 0.32799 0.0408461 0.279742 -0.566001 0.335352 0.823495 0.286476 0.160626 -0.573223 0.386129 0.939382 0.81398 -0.17922 -0.875943 0.0655617 0.222542 -0.0729077 -0.316307 -0.421139 -0.299422 0.320152 0.034275 -0.964628 0.682019 0.827155 -0.0808151 0.941547 -0.0810193 -0.396975 0.264252 -0.983735 0.892377 -0.689212 0.220025 -0.734892 0.570385 0.140531 0.720873 -0.216685 0.477576 0.0333281 -0.365543 0.295259 1.00193 -0.137528 -0.668825 0.116703 0.761133 0.0133387 0.720336 -0.381539 -0.678077 -0.215809 -0.517547 1.02313 -0.280425 0.432571 0.930822 0.649816 -0.974764 0.250361 0.588466 0.931033 0.499634 -0.0668995 -0.621957 0.128932 -0.927126 0.92284 0.900184 0.59509 0.0460354 -0.370821 -0.101348 0.0171798 0.479405 0.262505 -0.86517 0.205424 -0.736992 0.863234 0.711476 -0.358682 -0.323664 -0.786626 -0.390328 0.365578 0.66999 -0.488552 -0.0481789 0.644451 0.738412 -0.371731 0.620759 0.210239 0.566832 0.851848 -0.65444 0.614271 0.844871 -0.74693 0.258735 -0.132821 -0.145643 -0.822985 0.875005 -0.633483 0.423792 -0.974591 0.566203 0.680745 0.850432 0.297059 -0.784359 -0.442612 0.511025 -0.0528024 0.921581 0.148966 0.418697 -0.0881643 -0.197201 0.157751 0.543169 -0.652256 -0.657682 0.0906674 -0.775313 -0.306062 -0.275509 -0.941217 -0.0547675 1.00227 -0.0860989 0.816855 -0.847123 -0.15641 -0.899219 0.574738 -0.182767 0.721445 0.293515 -0.265507 0.0449712 0.506622 0.292613 -0.484111 -0.570083 0.189455 0.62958 0.816147 -0.852467 -0.549852 -0.021514 0.632025 -0.231562 0.303579 -0.261596 -0.009945 0.973994 0.508237 0.0525438 -0.0979312 0.481354 0.98917 -0.384556 0.627652 -0.184585 -0.219745 0.195238 0.630735 -0.530561 -0.577035 -0.616454 0.533834 1.0159 0.699013 -0.987926 -0.530175 -0.121248 0.678033 -0.835018 0.00977417 -0.919818 0.284591 -0.263697 -0.149883 -0.500266 0.297527 0.810309 -0.55953 -0.186253 -0.114152 0.350351 -0.75154 -0.140314 -0.976466 0.85211 0.696209 -0.172617 0.0574186 0.402673 0.370236 0.39582 0.738781 -0.190942 0.495062 0.492596 -0.189349 0.832773 -0.693048 -0.515369 -0.873173 0.307426 -0.42923 0.331436 0.817063 0.372734 0.773837 0.176088 0.230034 -0.699829 0.93131 -0.913543 0.666558 -0.812523 -0.0172047 0.7104 -0.938422 -0.414455 -0.467725 0.12129 0.980415 0.803467 -0.364725 0.735685 -0.206214 -0.887 0.182595 0.508581 -0.979083 0.495518 0.98799 -0.850548 -0.272983 -0.485164 0.460991 -0.426319 0.90244 0.314615 0.740356 0.08372 0.632946 0.657675 0.232761 0.225126 0.890874 -0.850633 -0.0446973 0.915569 -0.221008 0.501883 0.0644433 -0.196139 0.361323 0.684277 -0.495722 -0.977723 0.777546 0.646848 0.493392 0.864475 0.165806 0.551501 1.02698 0.890915 0.974882 0.367247 -0.566661 0.911411 -0.213834 -0.748506 -0.0376133 -0.728425 0.863073 -0.895396 0.568184 0.751752 -0.721018 -0.498018 0.594758 0.0465026 0.959553 -0.245755 0.890395 0.356797 -0.537041 -0.65697 0.395317 -0.768873 -0.986083 -0.213749 -0.942552 0.145628 -0.628386 1.0317 0.0124651 -0.707827 0.328008 0.425467 -0.889342 -0.955589 0.614862 0.0804204 -0.672308 0.460373 0.230708 0.857854 0.238958 0.531913 -0.632373 -0.0303018 -0.379712 -0.744844 0.683532 -0.56288 0.684858 -0.835292 -0.239643 -0.0293767 -0.640363 -0.212702 0.855216 -0.601991 0.923435 -0.816988 -0.749211 -0.089692 -0.590122 0.624751 -0.636656 -0.38603 0.623197 0.947695 0.710554 0.973288 0.446076 -0.0408748 0.836359 -0.394987 -0.515496 -0.781711 0.554707 0.0670489 -0.425456 0.249225 0.600186 -0.73554 0.396198 -0.681503 0.262335 0.761608 0.104665 0.121234 -0.920874 -0.0155124 0.282407 -0.640521 0.910426 0.785401 0.972443 -0.774912 -0.583716 0.582228 -0.759245 -0.935869 0.582783 0.620602 0.0276392 0.405561 -0.743108 0.529863 0.620692 0.842225 -0.371674 -0.828038 0.0591381 -0.85446 -0.611521 -0.583158 -0.579184 0.678302 -0.803414 0.560506 -0.173317 -0.729321 -0.504943 -0.970618 -0.400193 -0.561893 0.871912 -0.368254 -0.368252 -0.811736 -0.811935 -0.222492 -0.724321 0.773577 -0.58535 0.295649 0.150218 -0.352434 -0.214643 -0.193687 -0.492888 0.426435 -0.00525303 0.53748 0.557964 0.377403 0.961951 0.944934 0.0332772 -0.863098 0.500822 0.785911 -0.616759 0.971234 0.792672 -0.0268612 -0.671142 0.624179 0.552181 -0.0361511 0.808841 0.727725 0.771085 -0.927203 0.511187 -0.781369 0.368649 -0.275224 -0.105685 -0.893289 0.515367 0.371363 0.581454 -0.477164 -0.105993 0.0911761 0.879848 -0.120945 0.0743588 -0.0940965 0.00577708 -0.439542 -0.396068 0.370878 -0.514703 -0.554999 -0.638471 -0.119994 -0.95374 0.892234 0.855182 0.87917 0.64698 0.652883 0.948023 0.115826 0.86686 0.314382 0.832358 -0.246386 0.491568 0.355719 -0.852242 0.085785 0.86681 0.0460324 -0.816363 0.746757 0.926343 0.259819 -0.405852 -0.108278 0.805835 0.222843 -0.71418 -0.637456 0.6595 -0.379634 0.240068 0.694885 -0.450105 0.0718808 0.592674 -0.844135 -0.282266 0.535692 0.270552 -0.403165 -0.147407 0.14069 0.36345 -0.663622 -0.525961 0.481765 0.388543 -0.68669 -0.497856 0.577543 -0.928122 -0.554934 -0.146669 -0.335968 0.316804 -0.38425 0.863377 0.621786 0.00710223 0.564964 -0.782691 -0.793608 0.242561 -0.299068 0.270583 -0.165653 -0.131093 0.990496 -0.634049 -0.86141 -0.45142 0.215834 0.293764 0.942291 0.576064 0.745882 0.41643 -0.0421663 -0.93803 0.87631 -0.474212 -0.875303 -0.666612 0.3589 -0.228206 0.638021 0.934655 -0.375423 0.190769 -0.0550138 -0.844617 0.41478 0.141234 0.382247 -0.86359 -0.579253 -0.771392 0.0382466 -0.592806 -0.38606 0.192657 -0.0897547 0.817554 -0.525531 -0.100387 0.410873 -0.801078 -0.740232 -0.65454 -0.709488 -0.822442 -0.117342 -0.610778 -0.490403 -0.863263 0.146284 -0.902722 -0.859405 0.79596 0.364065 0.0645586 0.92383 -0.207662 -0.767375 0.340558 -0.0399882 -0.358978 0.521427 0.9923 0.0402436 -0.868077 0.176433 -0.965229 0.961735 0.64536 -0.0567013 0.360143 0.885111 0.210861 0.705597 -0.821793 0.392474 -0.487816 -0.482209 0.884023 -0.321454 0.706827 -0.938915 -0.190003 0.473234 0.408795 0.857441 0.438849 -0.809588 -0.886316 -0.27356 0.137563 -0.260309 -0.752363 0.148225 0.796152 -0.581477 -0.654932 0.816598 -0.645828 0.989398 -0.27974 0.678775 0.839484 0.928516 0.399967 1.02387 0.338954 0.894471 -0.461525 0.186997 -0.441898 -0.749966 0.272875 0.411718 0.706247 -0.341002 0.256493 0.0654835 -0.168471 0.368404 0.804991 0.970429 -0.881941 -0.954804 0.0759082 0.905669 -0.543873 0.439762 0.744258 -0.190254 0.414344 -0.541965 -0.50015 0.224845 -0.625881 0.87846 0.254318 0.700462 0.764218 0.783788 -0.145782 -0.69081 -1.01993 -0.86589 0.689017 0.690889 -0.225677 -0.0684525 -0.217472 0.611369 -0.691144 -0.380819 0.576375 -0.564101 -0.318177 -0.35791 -0.658757 0.150317 -0.9065 -0.905487 0.94019 0.463996 -0.464909 -0.537367 -0.277315 -0.0724091 -0.683476 0.9777 -0.460875 -0.9298 0.736177 0.457796 -0.59479 0.763624 0.572117 -0.929903 0.467113 -0.630464 0.0319439 -0.722938 0.969557 0.308735 -0.109022 0.537268 0.739458 0.56754 -0.776855 -0.910804 -0.293162 -0.675396 -0.823901 -0.309897 0.795407 -0.288332 0.155064 -0.479533 0.572234 0.431453 -0.517884 -0.862985 0.536544 -0.736009 0.587104 0.918215 -0.992326 0.143061 1.02282 0.477115 0.533762 0.00916924 0.742614 0.489478 -0.700196 -0.356693 0.0431953 -0.919014 -0.769963 0.255795 -0.851603 -0.0518479 0.547591 -0.706154 0.607659 0.336248 0.0185364 -0.238322 0.871937 -0.429874 -0.805719 -0.667496 -0.300903 0.726544 -0.387218 -0.684878 0.635807 -0.378063 0.45676 0.598171 -0.919743 -0.0111079 -0.39228 0.823511 -0.507801 -0.0911644 -0.572103 0.517951 -0.025529 -0.305041 -0.195965 0.13402 0.622326 -0.656508 0.439091 0.203729 0.662948 -0.561727 0.97079 0.543822 0.00699676 -0.832295 0.819628 0.682805 0.844821 -0.539702 0.989782 0.487483 0.060234 0.429892 0.102671 0.142443 -0.571957 0.738931 -0.0332988 -0.0822206 -0.344669 0.408797 -0.552825 0.662887 -0.907801 0.261794 -0.227566 0.683903 0.583022 -0.763068 -0.0921695 0.278287 -0.35723 -0.10918 -0.282349 0.633997 0.0545995 -0.383013 0.359923 -0.0700978 0.0480179 0.320786 -0.564959 -0.858085 -0.212776 0.561845 0.275383 0.184002 0.29426 -0.772448 -0.902176 0.945862 0.671507 -0.44547 0.599039 0.767052 0.806001 -0.573683 0.445402 0.389871 -0.335184 -0.644457 -0.412813 0.261657 0.227363 0.333131 -0.05735 -0.703574 0.941261 -0.719681 0.21008 -0.0262091 0.636772 0.654592 0.142372 -0.629643 0.199292 -0.601321 0.51588 -0.502111 -0.349154 0.67349 -0.52798 -0.690024 -0.797401 -0.909201 -0.964266 0.970944 -0.51815 0.470507 0.3762 0.133519 0.841243 0.936571 -0.591807 0.0552185 0.262439 0.341664 0.364289 0.228159 0.608996 -0.402594 -0.789428 0.190635 -0.776596 0.349358 0.541898 0.424676 0.774754 0.0691011 0.891698 -0.598082 -0.259188 -0.600704 -0.268461 -0.0631593 -0.521143 -0.240071 -0.0842391 -0.0479451 -0.767995 -0.724507 -0.923872 -0.927495 -0.788098 -0.515036 0.0620258 0.454864 0.783471 -0.536272 -0.324835 0.396011 0.0305265 -0.12933 -0.425423 0.267061 -0.774661 -0.83726 -0.314302 0.986389 0.233413 -0.401778 -0.598375 0.989208 -0.0224419 0.160023 -0.08165 0.43232 0.877759 0.86634 -0.627091 -0.870465 -0.892533 -0.541355 -0.900896 -0.679208 -0.054094 0.23845 0.800882 -0.242123 0.677711 -0.550245 -0.839156 -0.259358 0.353475 -0.221488 0.997462 0.555533 -0.065489 -0.329153 0.541345 -0.810402 0.283987 0.951395 -0.828777 -0.681288 0.0848266 0.140975 0.688152 -0.0318474 0.00650264 -0.937885 0.0233638 0.0748151 -0.4945 0.147439 0.426274 0.452364 -0.616428 0.204888 -0.793867 -0.959193 0.695377 -0.627764 -0.206268 0.00236128 0.127808 -0.204746 -0.482408 -0.915569 0.482464 -0.891931 -0.721595 -0.237894 -0.963094 -0.537946 -0.00333503 0.0875015 0.559913 -0.336342 -0.930941 -0.467551 -0.265133 0.0768441 0.639204 0.25408 -0.789934 0.0488515 -0.316832 -0.365191 -0.747781 -0.0592052 -0.338985 0.882239 0.267794 0.467617 -0.131788 -0.604584 -0.72431 0.389192 -0.559637 0.750929 0.504812 -0.262602 -0.479633 0.534694 0.173319 0.513055 -0.368662 -0.226398 -0.814716 -0.32414 0.274818 -0.0824662 0.741321 -0.0885625 -0.865613 0.952223 0.933412 -0.130315 -0.458761 -0.812208 0.755909 0.188311 -0.951611 0.0481562 -0.328866 -0.0221667 0.437106 -0.0866832 -0.650127 0.928951 -0.321754 0.847815 -0.396758 0.216315 0.404067 0.763497 -0.290712 -0.949428 -0.517712 -0.0852525 -0.30346 0.764278 0.76216 -0.55758 -0.343644 0.958143 -0.599859 -0.370202 -0.190689 -0.0816044 -0.149182 -0.414454 -0.865889 -0.0639358 0.644947 -0.21955 0.910451 0.111249 0.714494 -0.668317 0.0202915 -0.602971 -0.845962 0.642327 0.604499 0.62371 0.347421 -0.683816 0.667618 0.818856 0.166054 -0.671059 0.566998 -0.0487194 -0.197326 -0.754068 -0.095996 0.164622 -0.149662 0.700639 -0.867085 0.714953 -0.681122 -0.753919 -0.36003 0.98495 -0.0279854 -0.435312 0.0501818 -0.276164 -0.123749 -0.980446 0.0970857 0.0739872 0.576065 -0.326957 -0.36059 -0.10644 0.00172089 -0.756757 -0.295776 -0.825536 -0.359583 -0.672521 0.093602 0.405931 -0.476238 1.00633 -0.389334 0.482247 0.725363 -0.302872 0.180209 -0.947233 -0.0907941 0.7837 -1.00109 0.889345 -0.693646 0.0675614 -0.400986 0.215102 0.106558 0.703071 -0.775638 -0.321919 -0.596173 -0.143842 0.532263 0.369619 0.163254 -0.705556 0.516547 0.813515 -0.451092 -0.399819 0.200942 0.12903 -0.393229 0.819252 -0.447011 -0.686766 -0.456204 0.690073 -0.614446 0.460107 0.496121 -0.616971 0.356761 0.833518 0.470416 0.94048 0.0111186 -0.427568 0.659494 0.240133 0.247692 -0.928852 -0.899702 -0.15789 0.413196 0.284038 0.0526961 -0.0883839 0.072669 0.673271 0.538213 -0.680978 -0.215475 -0.885253 -0.810284 0.332397 -0.535067 -0.29542 0.0861159 -0.193097 -0.83935 -0.346947 0.215662 0.539606 -0.498268 -0.313421 0.43012 0.43267 0.266779 0.198647 -0.338868 -0.490209 0.268308 -0.241298 0.268895 -0.37163 -0.984873 -0.650338 0.590041 0.108464 -1.02467 0.0883081 0.400964 -0.220235 0.229389 0.618254 -0.803525 0.664747 -0.702876 0.258401 -0.55194 -0.557676 0.8484 0.709271 1.02436 -0.747488 -0.637366 0.520943 0.640274 0.590083 -0.328742 -0.707845 -0.881717 0.904645 -0.000277598 0.410475 -0.424586 0.0937629 0.697648 -0.861847 -0.76027 0.682323 0.244594 0.657313 -0.478079 -0.570546 0.262953 -0.288644 -0.911522 0.541187 0.885224 -0.4639 0.978074 0.834179 -0.826447 1.00615 -0.918805 -0.401117 0.478286 0.72631 -0.824392 -0.972628 1.04332 -0.711099 -0.82293 0.0128689 0.642508 -0.336169 -0.850189 0.358561 -0.219494 -0.721523 0.0513905 -0.968969 0.916161 0.561406 -0.482782 0.0682016 -0.622186 -0.405838 -0.282763 -0.75806 0.116945 -0.256433 -0.904337 0.296961 -0.303081 -0.803544 0.967009 -0.742643 0.90713 -0.811358 -0.658625 0.913523 -0.524171 -0.562527 -0.115926 -0.920813 0.0500899 0.00590065 0.439935 0.899669 0.285439 -0.527792 1.03506 0.135775 -0.940381 -0.563202 -0.587356 -0.750016 0.0248242 0.383088 -0.396608 -0.747523 1.03654 -0.317468 0.510546 -0.472106 -0.133648 0.54261 -0.286307 -0.232658 0.746613 0.0616664 -0.388317 -0.84728 0.468553 0.514132 -0.709734 -0.422124 -0.598649 0.667752 -0.556787 0.774433 -0.839633 -0.5013 0.0457308 -0.779826 -0.148017 0.454521 -0.46717 0.843238 -0.420453 0.15635 -0.846727 -0.574807 0.8081 0.606576 -0.0701645 -0.350966 0.168284 0.519267 0.422464 -0.102192 -0.299651 -0.902077 0.0786329 -0.748066 0.519633 0.308267 -0.119905 -1.02913 0.0560769 0.272575 0.842266 0.109803 0.637619 -0.112506 0.443662 -0.470826 -0.883926 0.964017 -0.624344 -0.0841062 0.0963014 -0.516429 0.347202 -0.0893002 -0.860418 -0.72428 0.529024 0.0887429 0.961657 -0.0159692 -0.778854 -0.312245 -0.00116666 0.244651 -0.196927 -0.510564 -0.45056 0.525797 -0.453085 0.616342 -0.20103 -0.625642 -0.124864 -0.606986 0.311062 -0.689216 -0.0129229 0.610769 -0.668894 0.250292 -0.44168 0.426907 0.845989 0.860215 -0.681234 0.816371 -0.847973 0.923907 0.169327 -0.920982 -0.0954673 0.343758 -0.428067 0.818814 -0.409664 0.380297 -0.604408 0.165385 -0.109391 -0.0875905 -0.179775 0.705067 0.322033 0.66191 -0.849274 -0.501903 0.964677 0.154457 -0.839886 -0.760253 -0.428374 -0.28904 0.732218 -0.643775 -0.405523 -0.98069 -0.720355 -0.256922 0.954188 0.46031 -0.277456 -0.214521 -0.221962 0.324852 -0.299163 0.401743 -0.315653 0.0734002 -0.446702 0.592394 1.01412 0.364629 0.327381 0.243505 -0.0207919 0.394007 0.786024 -0.0718436 -0.421254 -0.941872 0.217635 0.104505 -0.274625 -0.151682 0.434565 0.28318 -0.103371 0.644337 -0.960109 -0.0623169 0.239681 -0.259158 0.651089 0.920549 -0.949748 -0.625762 0.510502 -0.147299 0.403244 0.889997 -0.644049 0.274233 0.127545 0.652998 -0.359378 -0.797236 0.139396 -0.538451 0.120075 0.656347 -0.416243 -0.62427 -0.215987 0.189251 0.290395 -0.784008 -0.404071 -0.971999 0.855462 -0.471202 -0.131886 0.180577 0.261459 -0.351324 0.05298 0.27543 -0.0614068 -0.593629 -0.942427 -0.654766 -0.641371 -0.599796 0.779381 0.490052 -0.935057 -0.617202 0.725284 0.144309 -0.0431716 -0.146886 -0.0924366 0.451165 0.21686 0.58562 -0.423478 -0.725442 0.818326 0.117484 -0.4019 0.775858 0.700723 0.603109 -0.228627 -0.168732 -0.673768 0.861272 -0.80472 0.202629 -0.747838 -0.778927 0.590557 -0.307049 -0.347766 0.311298 -0.906743 -0.328028 0.690164 0.638385 0.825464 -0.504748 -0.430251 -0.31821 0.831014 0.745059 -0.694551 -0.473504 -0.647486 -0.866911 0.65239 -0.0470495 0.807249 0.230382 -0.466893 -0.39846 -0.851323 -0.176152 -0.484045 -0.580489 -1.01693 -0.278652 -0.390333 0.600685 0.420771 0.134687 -0.125868 0.304248 0.797598 -0.504995 0.196983 0.746189 -0.0249553 0.884536 -0.632771 -0.00131796 0.746552 -0.363503 0.570172 -0.914323 -0.222165 0.351723 0.0817219 -0.450219 -0.529387 0.578697 0.153194 -0.405192 -0.401906 0.67678 -0.0852634 -0.63315 -0.664001 0.35613 0.935447 0.624556 -0.416078 -0.14225 0.115498 -0.584441 0.400246 -0.831163 -0.7172 -0.434296 -0.901394 -0.560411 0.652375 0.826992 0.243355 0.101106 0.931927 0.893854 -0.654954 0.0338044 -0.551573 -0.126029 -0.5235 0.585507 0.439443 -0.022928 0.212487 -0.645495 0.403291 0.535807 0.864601 0.291536 0.162866 -0.592135 -0.79102 -0.930458 -0.0471517 0.73791 -0.530374 0.00222377 -0.835185 -0.632373 0.455825 0.649393 -0.7473 -0.386205 -0.0551479 -0.760978 -0.374903 0.35452 0.111373 -0.123889 -0.62194 0.702896 -0.455825 0.680403 -0.351313 0.732603 -0.945287 -0.888541 0.295714 0.866959 0.396232 -0.565753 -0.729462 0.427457 -0.403774 0.110714 -0.0125002 -0.0107531 -1.05845 0.344587 0.456273 0.582119 0.153266 0.743175 -0.807959 -0.886153 0.884365 -0.353921 0.445993 0.00355016 0.610227 0.650008 -0.245582 -0.782589 0.336223 0.3945 0.927036 0.486512 0.548173 0.0969724 0.274622 -0.227126 0.548115 0.48008 -0.589308 -0.768694 -0.45295 0.647059 0.170411 -0.225004 0.0136189 -0.404515 -0.674273 -0.719639 -0.656263 -0.44311 -0.695586 -0.803264 0.173034 0.796189 0.216413 -0.31828 0.648336 0.858447 -0.0985813 -0.257111 0.299717 -0.333757 -0.714834 -0.290342 0.888236 0.494717 0.573698 0.452533 0.0269035 0.903126 0.811731 0.730397 0.585032 -0.213028 -0.451317 -0.426782 0.624917 -0.187976 -0.383363 0.755549 0.195518 0.250077 0.954771 -0.511481 -0.377055 0.0907003 0.223007 -0.739255 0.0987102 -0.870274 0.106963 -0.614012 0.0274929 0.253348 0.103926 -0.190971 -0.259401 -0.316815 -0.618309 0.791661 -0.466357 0.972745 0.483787 -0.930989 -0.25379 0.759818 -0.34989 -0.818026 -0.249099 0.477349 0.991788 -0.923668 -0.570143 0.864512 -0.515024 0.240317 0.0597827 0.8052 0.435163 -0.865178 0.91961 -0.436571 -0.451885 -0.130295 0.724284 0.673222 0.673687 -0.634609 -0.766143 0.827345 -0.769904 -0.206141 0.854867 0.635869 -0.0809953 -0.353453 0.683704 0.598741 -0.170445 -0.562569 0.00521109 -0.247919 -0.509067 0.456414 -0.375237 0.172013 -0.274328 0.758719 -0.0735144 -0.840957 0.879242 -0.24336 -0.184411 -0.679935 0.693049 -0.735173 1.00742 0.263506 -0.195515 -0.766125 0.279087 0.0379928 -0.0178751 0.279756 -0.24869 0.869907 0.843798 -0.315569 0.493776 -0.204821 0.0121567 -0.554227 0.413115 0.340373 0.926579 -0.915256 -0.337339 -0.245919 0.689894 0.235723 -0.245725 0.525312 -0.647292 0.373581 0.788813 0.844955 0.630459 0.731275 0.194553 -0.493987 1.02971 -0.441175 0.573862 -0.0883175 0.829767 -0.689865 -0.0104773 0.690778 -0.414257 -0.722893 -0.80815 0.798143 -0.254655 0.684197 -0.138721 -0.390545 0.673261 0.481335 0.288371 0.369776 -0.187035 -0.967818 -0.0195952 -0.117829 0.388367 -0.326542 -0.258467 0.282176 -0.574592 0.837689 0.564825 -0.573263 -0.512903 0.209738 0.270955 -0.983928 0.51248 -0.918078 0.820532 -0.707184 -0.633872 -0.899008 0.832471 0.122598 0.60102 -0.16803 0.772853 0.483266 -0.777771 0.0403326 -0.173357 0.0431266 0.101973 0.739492 0.881199 -0.417921 -0.592966 -0.505093 0.58884 -0.295294 -0.359421 0.270196 0.285947 0.0602952 -0.504949 -0.524826 0.295101 -0.989484 -0.4496 0.115129 -0.741715 -0.100018 0.203147 -0.892688 0.974818 0.168208 -0.0364391 0.780662 -0.423382 0.187561 -0.132282 0.150041 -0.71556 0.895347 0.0733892 -1.05504 -0.521595 0.273176 -0.334141 0.970873 -0.694357 0.232413 0.223516 0.589348 -0.721211 0.68994 0.948344 0.787262 0.721786 -0.443998 -0.0992073 0.880817 0.381682 0.803578 -0.925802 0.453877 -0.0243178 0.20283 0.0800473 0.28516 -0.813286 0.995625 -0.0650207 -0.643382 0.675972 0.776102 -0.603482 -0.985626 0.231717 0.065097 1.17389 0.591974 -0.688079 0.212967 0.134771 -0.421849 0.0288075 0.123593 -0.94969 -0.378682 0.407044 0.0307905 -0.412187 -0.0995613 -0.350291 -0.383152 -0.78668 0.581351 0.668158 0.301167 0.0155843 0.848677 0.189474 0.688706 -0.832467 -0.143956 0.453629 -0.14927 -0.176076 -0.485412 0.574522 -0.0659937 -0.722055 0.993636 -0.935016 0.112166 -0.440597 -0.018752 -0.649881 -0.268123 0.540306 0.876356 0.494654 -0.770569 -0.505634 -0.743623 -0.167754 0.023069 0.827104 -0.520761 -0.712077 -0.149168 -0.642067 0.491466 -0.498328 -0.359307 -0.656735 0.890899 0.130668 0.206275 -0.198692 -0.153194 -0.723812 0.0349582 -0.154423 -0.828258 -0.709755 0.406062 0.144214 -0.371118 -0.893636 -0.279524 -0.505943 0.633033 -0.122159 0.477645 0.887481 0.751744 -0.583625 0.722176 -0.72509 -0.556502 -0.46154 -0.41759 -0.905431 -0.0396454 0.172418 -0.626432 0.0092984 -0.794927 0.686818 0.671224 0.0557237 0.838196 -0.410187 0.867255 0.905545 -0.0184534 0.304141 0.0697901 0.639759 0.351601 0.755133 0.875204 0.0243384 -0.208235 0.21445 0.15831 -0.682672 0.512541 -0.368512 -0.401566 -0.701328 0.192044 -0.0297936 -0.770431 -0.861154 -0.9795 -0.356633 0.24786 -0.625806 -0.64142 -0.0725434 0.316814 -0.905413 0.516377 0.243215 -0.925511 -0.63988 -0.528173 -0.0387936 0.984072 0.871965 -0.192472 0.829122 -0.140444 0.394402 0.0144664 0.790482 0.718491 -0.383941 -0.585903 -0.850458 -0.260683 0.579266 0.205479 -0.0204341 1.02639 0.19067 0.441888 0.0404763 0.53646 0.988137 -0.858691 -0.236707 -1.15127 0.567335 0.94985 -0.925544 0.957018 -0.596466 0.131981 0.73692 -0.686568 0.627486 0.604362 0.16241 0.359953 -0.340136 -0.0714639 0.0816119 0.301306 0.377898 0.315176 -0.968897 0.0263647 -0.48515 0.0223123 -0.213177 0.796802 -0.212245 0.944532 0.351755 -0.273154 1.00108 1.008 -0.276871 0.55751 0.965907 -0.218362 0.46657 -0.659004 0.902539 0.23518 -0.385231 1.01253 -0.139799 0.808134 0.282188 0.489577 -0.239667 -0.788899 -0.276157 -0.865578 0.602322 -0.224765 0.0706129 -0.905836 0.830415 0.823213 0.900149 -0.519727 0.766587 0.100133 0.103175 0.734588 0.0907789 0.869804 0.319407 0.07043 -0.323974 -0.24567 0.392008 -0.588852 0.996088 1.13584 -0.766056 0.113135 0.758368 0.557527 -0.66143 -0.534155 0.896952 0.135204 -0.542585 0.443888 0.834273 0.454151 0.535114 0.780622 0.384942 0.457318 -0.726274 0.066069 -0.450952 0.382798 -0.171262 0.667149 0.199004 -0.893023 -0.325525 0.852468 -0.125697 -0.923765 -0.761271 -0.157872 -0.967323 -0.436795 0.696146 0.798207 -0.841255 -0.976872 -0.829604 -0.960363 0.169004 -0.270519 0.450884 0.186026 -0.831399 -0.166659 -0.132346 0.569976 -0.551899 0.258616 -0.464753 -0.12346 -0.433033 0.358546 -0.391913 0.77234 0.425203 0.296947 0.459977 -0.640555 0.183891 0.761203 0.180023 0.427798 -0.644587 -0.150543 0.234179 -0.451983 -0.0911125 0.506313 -0.465033 -0.923539 -0.769973 0.931045 0.134426 -0.511865 -0.019141 -0.919006 0.900303 0.518729 0.277509 -0.519799 -0.570311 0.838566 0.843802 0.0224952 0.541482 0.228134 -0.699696 0.0368482 0.566283 0.77951 -0.198098 -0.224908 0.181967 0.12241 0.64746 -0.653318 0.594569 -0.483156 0.852353 -0.793341 -0.493402 -0.897109 -0.802943 0.670814 -0.453091 0.190346 0.74849 -0.534583 -0.393018 -0.0143061 -0.0995787 0.020602 -0.146291 -0.266633 -0.987109 -0.621574 0.983234 -0.697029 0.39218 0.593048 -1.06969 -0.619701 -0.733233 0.183429 0.32945 0.781169 0.481633 0.0140812 -0.721787 0.349807 0.205288 -0.225879 0.403483 0.414513 -0.549424 0.969074 -0.377357 -0.79244 -0.592697 0.228345 0.190687 0.283249 -0.731749 -0.966905 -0.923715 -0.677426 -0.599595 -0.989961 -0.399551 0.778417 0.508301 -0.358114 0.968567 0.782504 0.772152 0.283057 0.570059 0.301744 -0.690441 0.925283 -0.369705 0.562991 -0.293499 -1.03951 -0.04465 0.187689 -0.99246 0.655758 0.350148 -0.643532 -0.195594 -0.420489 0.678809 0.0656246 -0.415232 0.713027 0.252475 -0.015176 0.656565 0.904538 -0.222663 0.257147 -0.470956 -0.282372 0.051765 -0.652097 -0.962169 -0.302892 0.609515 -0.689385 -0.383483 -0.747389 0.83784 0.323796 -0.70812 -0.185721 -0.511978 -0.658208 -0.596622 0.878419 -0.309067 0.211011 -0.53824 -0.632638 -0.802534 -0.00450952 -0.93796 0.479945 1.00586 0.842696 0.38607 -0.253601 0.0842333 0.877843 0.531776 -0.895324 -0.808754 0.51304 -0.211116 0.840773 0.762097 0.432513 -0.916179 0.671937 -0.233704 -0.625996 -0.534223 0.239647 -0.343846 -0.167296 0.0955854 0.346928 -0.939475 0.569255 0.712993 -0.75619 -0.446016 0.727609 0.702533 -0.428829 0.538318 0.192923 0.303214 -0.357653 -0.0110649 -0.285832 -0.294708 0.229206 -0.753855 0.508747 0.0296426 -0.964119 -0.115878 0.148119 0.698324 0.67701 0.552204 -0.832951 -0.0903154 -0.799458 0.00884428 0.981878 0.530525 0.0506488 0.53207 0.254339 0.281471 -0.909561 -0.0415723 -0.0392427 -0.404868 -0.427792 -0.942612 0.903591 0.185294 0.0292363 -0.33267 0.906323 -0.73366 -0.051898 0.413621 0.343224 -0.00838251 -0.697414 -0.495932 -0.288553 0.977377 -0.924739 -0.143679 -0.153315 -0.754191 0.896508 -0.151765 0.800813 -0.0862165 -0.605309 -0.0532906 -0.815473 -0.522583 0.984204 0.184232 0.108827 -0.472628 0.212386 0.0282331 0.743431 -0.721219 0.725033 0.641363 -0.483997 -0.333538 0.0402881 0.856496 0.655942 0.384513 -0.627935 -0.635834 0.384513 -0.56969 0.26821 -0.786875 -0.322172 0.165959 0.0640663 -0.603499 -0.966249 0.440737 0.371085 -0.737639 0.930935 0.348865 0.420852 0.0329405 0.857559 -0.327249 -0.934117 0.62739 -0.101984 0.771351 0.255125 0.368939 -0.551105 -0.682071 0.289033 -0.87075 0.692735 0.635629 -0.501736 0.0188093 -0.972067 0.731077 0.21611 -0.278754 -0.120017 -0.694367 0.0900069 -0.0693775 0.725292 -0.545568 0.184521 0.66093 0.834159 -0.407361 -0.273047 0.692464 0.20483 -0.242864 0.319807 -0.914921 -0.467035 -0.397071 0.468178 -0.0526666 -0.103022 -0.199427 0.102864 -0.393365 -0.623061 0.590725 0.617251 -0.612975 0.342631 -0.151918 0.124051 -0.83487 0.166862 -0.784907 0.118589 -0.194792 -0.3494 -0.740799 -0.472999 -0.532368 -0.147332 0.207719 -0.852387 -0.966719 1.00716 0.45382 -0.818651 -0.487056 -0.948178 0.655397 0.445688 -0.0471495 -0.567877 -0.441681 0.598538 -0.199805 -0.9067 0.166597 0.252081 0.425649 1.03489 -0.66854 0.621834 0.0653638 -0.415975 -0.288245 0.953239 0.234799 0.0351731 -0.553261 0.676809 0.885933 0.683162 0.854685 0.980843 0.663815 0.303292 -0.843964 -0.853837 0.356202 0.837635 0.629847 -0.669815 -0.714944 -0.678733 0.899859 0.0958874 -0.667507 0.0774511 -0.654382 0.756565 0.0374971 -0.35261 0.368501 -0.865593 0.239056 -0.911947 -0.88567 -0.549668 0.146229 -0.494726 -0.817513 0.0222574 -0.799247 0.997398 -0.0177976 0.882348 0.231435 0.183159 -0.93955 -0.354881 0.00944372 0.707816 -0.0471286 0.242137 0.893452 -0.180409 -0.700251 -0.814228 0.908999 -0.404663 0.997535 -0.0771064 0.288669 0.3249 0.0531643 -0.469142 0.375334 0.239942 -0.0417143 -0.360574 0.67697 0.0558687 0.569559 0.904611 0.0187536 -0.429383 0.802544 -0.737909 0.679469 0.849274 -0.0903212 -0.290753 0.575134 0.855468 0.91609 0.462645 -0.31355 -0.806258 0.605368 -0.425804 -0.213868 0.664158 0.498604 -0.865473 -0.0609857 -0.471367 -0.395192 -0.567054 0.685996 0.570528 -0.00367587 0.346528 -0.354347 -0.393467 0.265582 0.692689 0.158161 0.0355216 0.954404 -0.11808 -0.107276 -0.0891924 0.538429 -0.5131 -0.280412 0.392138 0.92967 0.432534 0.655569 0.625503 0.971215 -0.487145 0.172642 0.473093 -0.431966 -0.814347 -0.966635 0.273899 -0.420792 0.686491 -0.103266 0.589841 0.0685473 0.536031 -0.811919 -0.66345 0.224171 0.385921 0.346567 0.195655 -0.712547 -0.740568 -0.979296 0.768414 -0.258615 -0.155 0.206461 -0.328643 -0.726917 -0.152916 -0.787905 -0.795442 0.330241 0.416628 0.712113 1.00272 0.596201 0.730759 0.227052 -0.853145 0.443935 -0.866606 0.813055 -0.52666 0.66366 0.969973 -0.285367 -0.118461 0.319351 -0.88226 -0.889105 0.522182 -0.649047 -0.794266 0.234684 0.0556044 0.00145583 -0.560871 0.741668 0.256002 0.275645 0.936969 0.484197 -0.384813 0.334278 0.20765 -0.366675 -0.0335373 -0.106439 0.923431 0.116023 -0.690832 -1.00074 -0.0875505 -0.284353 0.677971 -0.121552 0.442137 -0.470706 -0.79344 0.51361 -0.311732 0.742161 0.900914 -0.167931 -0.0271397 0.0283527 0.72965 0.296977 -0.306968 0.145854 -0.32857 -0.377435 -0.399235 0.239802 0.923853 0.734959 0.834707 -0.124184 -0.360161 0.73818 0.981391 -0.00498075 0.679913 -0.112226 0.670524 0.396237 0.789855 0.147806 0.966573 -1.00556 -0.29073 -0.383389 0.706794 -0.412483 0.433252 -0.30256 0.587893 0.296915 -0.900351 -0.745717 -0.574052 -0.352174 -0.157234 -0.0565647 0.90836 -0.177346 -0.220225 0.726058 0.671559 0.471336 0.470582 0.68642 -0.612041 0.162972 -0.396633 -0.946416 -0.414135 -0.644751 0.135135 -0.392881 -0.641208 0.808415 0.00379072 -0.894594 -0.508702 -0.410753 -0.19077 -0.907198 0.888049 -0.177053 -0.687969 -0.730225 0.492629 0.200692 0.348819 0.326411 1.0436 -0.914422 0.0816141 0.694045 0.514871 -0.413231 0.316774 0.929454 0.688709 0.87835 0.934849 -0.717391 -0.73032 0.170961 -0.200934 -0.404459 0.0714452 0.899464 -0.332391 0.558651 -0.487472 0.489528 0.698923 -0.6155 -0.700449 0.961819 -0.348872 0.767316 0.200933 1.10253 0.119332 0.141408 -0.911378 -0.718917 -0.198795 0.61849 -0.151593 -0.891983 0.589208 -0.455455 -1.01315 0.535998 -0.155334 -0.864367 -0.228764 0.664109 -0.158147 0.834729 0.559643 0.539404 0.212795 -0.959609 -0.0193735 0.222894 -0.511848 0.267298 -0.00901154 0.149508 0.0173034 -0.91172 0.0376039 -0.814609 0.251607 0.167865 -0.544221 -0.910924 -0.274441 0.279479 -0.813422 -0.615304 1.01674 -0.755616 0.812773 -0.208723 -0.534347 -0.297187 -0.511921 0.266235 -0.462779 0.97402 -0.18765 0.901893 1.00155 0.73973 -0.0547202 -0.687074 -0.0539476 1.03647 0.375596 -0.941545 -0.930112 -0.596125 -0.777823 0.286169 0.731953 -0.296029 0.384222 -0.647387 0.973429 0.565216 -0.317477 0.865531 0.565324 -0.249266 -0.370981 -0.692672 0.333599 0.0385756 0.479407 0.919899 0.000974668 -0.690206 0.819479 -0.0906685 -0.967215 -0.266374 0.226301 0.0896837 -0.177053 -0.433318 0.211992 -0.171352 -0.00586115 0.372791 -1.03584 -0.406183 -0.992014 0.447577 -0.136125 -0.966257 0.0488987 0.649597 0.941374 -0.251953 -0.65349 -0.46625 -0.0585543 0.712116 0.543584 -0.544307 0.560981 -0.447438 -0.0786297 0.554518 0.429596 -0.199837 -0.871472 -0.345796 0.960844 0.0602319 0.276656 0.00083181 0.593496 -0.731293 -0.681734 0.735535 -0.171565 -0.641771 0.18415 0.636866 -0.62868 -0.838655 0.362014 -0.949053 -0.0190619 0.754647 -0.181978 0.932087 0.45211 -0.544812 -0.813983 -0.0414264 -0.0989506 0.205093 -0.397323 -0.662879 0.958203 -0.199418 -0.0384875 0.780514 0.611254 -0.764861 -0.200644 0.315308 -0.507146 0.240187 -0.140719 0.245847 0.514126 -0.814367 0.403311 1.01487 -0.743926 -0.360175 -0.759226 0.342985 -0.650067 0.0168666 0.27314 0.664408 0.426611 0.678166 -0.27345 -0.744478 -0.150985 0.158403 -0.590202 0.0657643 0.884201 0.619135 -0.387388 0.487876 0.830858 0.324512 0.165605 -0.653011 -0.422049 0.775762 0.753062 -0.911145 0.762671 -0.317268 0.677088 -0.768653 0.181728 -0.7196 0.45031 0.384765 0.261311 -0.0442573 0.0243127 -0.323288 -0.34824 0.656466 -0.0586448 0.466725 -0.176661 0.60243 -0.588317 -0.286649 0.267997 0.00987882 -0.762962 0.0747926 -0.869845 -0.00419688 0.290863 -0.0918051 -0.368781 -0.000798116 0.0862406 -0.301313 0.76687 -0.152676 0.049258 -0.0890492 0.177491 -0.299682 -0.734972 -0.573481 0.699875 0.297935 0.328769 -0.429015 -0.181166 -0.933957 0.609498 0.741014 0.793019 -0.726105 -0.523651 -0.138896 -0.0473197 -0.361291 0.946108 0.382725 0.598502 0.234791 -0.717038 -0.519479 -0.768347 0.259139 -0.00818045 0.85553 -0.710796 -0.890028 -0.123803 0.465949 -0.224706 0.342306 0.805438 -0.751397 -0.56108 -0.0225624 -0.160243 0.374413 0.0843084 -0.501575 0.0484607 -0.297914 -0.31518 0.53985 0.572682 0.779163 -0.829491 0.494449 0.0125961 0.659774 -0.293622 0.385503 -0.469219 0.0671706 -0.318008 0.362354 0.0161309 -0.0585254 0.370807 0.820643 -0.445598 0.986111 0.0157823 -0.680268 -0.5588 0.384371 0.350125 0.127445 -0.44333 -0.242212 0.712483 0.8899 0.143078 -0.604968 0.412238 -0.461842 -0.364301 0.611157 -0.796622 0.229863 0.59659 -0.0956946 -0.683426 0.423235 0.545009 -0.0587192 -0.394205 -0.232306 -0.981648 0.826169 -0.32948 -0.377448 0.815871 0.666739 -0.0301755 -0.820651 0.0794396 -0.695739 0.304912 0.872674 -0.231997 0.062289 0.836871 1.03017 0.483753 0.28742 -0.529087 0.540959 -0.265741 -0.17145 -0.331486 -0.9458 0.771491 0.390804 0.586703 0.411615 -0.318046 -0.833801 -0.472033 -0.112219 0.980682 0.0303286 0.704532 0.799628 -0.103217 -0.282369 0.863918 0.788526 -0.396568 0.260031 0.72066 0.495433 -0.787814 0.406463 0.355767 0.70489 -0.188581 -0.667939 0.244265 0.291316 -0.053527 -0.69688 0.389881 -0.322416 0.374926 -0.0477416 -0.700191 -0.87125 0.137659 -0.318198 -0.0323176 0.253345 0.721966 -0.494737 -0.110423 -0.597634 0.13995 -0.160038 -0.766075 0.623358 -0.978504 0.862064 0.480858 -0.62424 0.263412 -0.0190742 -0.928852 0.750713 0.130386 0.334824 0.145211 0.977884 0.369244 -0.436618 -0.385239 -0.148965 0.622787 -0.0616136 -0.0853275 -0.342491 0.616091 0.771743 0.786134 0.357752 -0.66795 -0.33491 0.814898 0.270185 0.352244 -0.811495 0.126993 0.594333 0.906589 -0.469635 0.951702 0.0849405 0.610223 -0.944973 0.0363161 -0.51741 0.347488 -0.821406 -0.69369 -0.331039 -0.489336 -0.037499 0.424434 -0.553306 -1.1345 -0.739457 -0.0421733 0.680565 -0.94326 -0.279875 0.06062 -0.690004 0.397588 -0.132877 0.586704 -0.131146 -0.107851 -0.180343 -0.44821 -0.126181 0.314802 -0.521347 -1.05672 -0.245263 -0.582581 0.0564573 0.145637 0.662424 0.253156 0.6399 -0.542466 0.904482 -0.239376 0.880061 -0.690309 -0.184059 -0.87041 0.146246 -0.298032 -0.819508 0.96282 0.639936 -0.551036 0.250491 -0.681627 -0.94478 -0.753026 0.385046 -0.261949 -0.42693 -0.891407 -0.996302 0.0788194 -0.678146 -0.30089 0.39362 0.280849 0.947146 0.178049 -0.480458 0.499 0.676941 -0.48561 -0.698868 0.539595 -0.304758 0.0896512 0.678147 0.990139 0.485963 0.802865 0.757852 0.229376 -0.728416 0.0191217 0.331671 -0.775254 0.132605 0.104946 0.0861676 0.67548 0.283017 0.0811623 -0.367583 0.693294 0.829869 -0.928886 -0.312365 0.52859 0.19048 0.131618 0.0354871 0.116052 0.697562 0.397848 -0.610898 -0.712393 -0.475939 -0.95591 -0.697785 -0.819134 0.842379 -0.923931 0.318326 -0.886191 -0.0144415 -0.0588569 -0.561078 -0.78883 0.900115 0.509095 0.82227 0.0464212 -0.385641 -0.424192 -0.490694 -0.694009 -0.357973 0.0214346 -0.960446 0.715072 -0.503276 0.221263 0.0107728 -0.949188 -0.311224 0.206022 -0.46262 0.233357 0.227253 -0.181596 0.372098 0.0944946 -0.104801 -0.297141 0.184039 1.06913 0.762235 0.670544 -0.845756 0.537873 0.183388 -0.893264 -0.342735 0.71734 -0.316267 0.0616057 -0.932275 0.316486 -0.656681 -0.875517 0.227984 -0.254969 0.35334 -0.996195 -0.160498 -0.968782 0.185786 0.503923 0.271119 -0.587564 -0.682081 -0.398281 0.506588 0.0632632 0.314732 -0.177912 0.041638 0.0123721 -0.696873 0.228721 -0.531599 0.600077 0.278257 0.106808 0.127225 -0.9144 -0.494313 0.225558 0.406727 -0.411035 0.412695 -0.337005 0.346771 -0.254192 -0.480431 -0.823196 -0.317711 1.03841 0.325051 1.0043 -0.651632 0.70227 -0.374162 0.784768 -0.469292 0.861897 -0.524359 0.981466 -0.120485 -0.257145 0.304246 0.342418 -0.86535 0.0047193 -0.408134 0.312824 -0.30989 -0.573081 -0.517907 -0.971315 0.0301011 1.07896 -0.25678 -0.51942 -0.406665 0.209369 -0.194226 0.359346 0.222767 -0.62558 0.304585 0.507837 -0.918051 1.01616 0.148308 -0.0846911 0.920901 0.754312 -0.22368 -0.206931 -0.570509 -1.1478 -0.843342 -0.309372 -0.393188 -0.573673 -0.999978 0.16526 0.292742 -0.515559 0.533498 -0.404672 -0.372912 -0.850286 0.24374 0.0639908 0.545662 -0.93706 -0.590913 -0.257609 -0.580782 0.737297 -0.740552 -0.459697 0.725722 0.618617 0.563324 0.645129 0.141425 -0.853596 -0.564283 0.872481 -0.797142 -0.397962 -0.499027 -0.200901 0.132857 -0.412086 -0.879083 -0.575067 0.0754448 0.521654 0.0496899 0.447138 0.65627 -0.717519 -0.470069 0.143978 -0.643926 -0.112133 0.905248 -0.227211 -0.318302 -0.775528 0.265394 -0.486912 0.663394 -0.392488 -0.951388 0.091931 -0.114839 -0.290341 -0.31382 0.106784 0.0448556 0.383588 1.1582 -0.796273 0.872571 -0.95136 -0.363897 -0.0493359 0.573292 0.747905 -0.667488 0.225302 0.877549 0.183122 -0.708746 -0.659584 0.816961 -0.617214 0.110297 -0.435945 -0.640349 -0.690608 -0.037761 -0.635272 0.0361997 -0.0084238 0.478125 0.917021 0.352137 -0.36756 0.148193 -0.471339 0.680681 -0.180723 -0.374761 0.471819 -0.264731 0.472341 -0.502888 -0.504784 0.0851359 -0.194468 0.809458 0.0945932 0.845521 -0.769131 0.269527 0.73139 -0.432731 -0.511358 -0.732943 0.161485 -0.116872 0.267812 0.46961 0.908891 -0.798432 -0.178581 0.846982 0.731926 0.196531 -0.188876 -0.740876 -0.188564 0.79851 -0.00806348 -0.40799 -0.171585 -0.359382 -0.0358428 0.41772 0.504958 0.864584 0.231344 -0.40048 0.680604 0.453049 -1.00941 0.426891 -0.932956 -0.48282 0.736678 0.31391 0.319936 -0.0992831 -0.40406 0.291048 0.227812 0.374816 0.215039 -0.0559412 -0.20712 0.876316 0.390747 0.654498 0.775413 -0.721556 -0.909503 -0.367645 -0.448694 0.0239625 -0.963641 -0.9171 -0.247403 0.279358 -0.332877 -0.478459 -0.286203 -0.330182 0.963336 -0.244954 0.266638 0.473595 0.931714 -0.417767 -0.242391 -0.376096 1.07477 0.604742 -0.788563 -0.000688042 -0.184714 0.150297 -0.00697446 -1.00036 -0.361829 -0.209751 -0.760789 -0.26194 0.484341 -0.29171 0.760818 0.321227 0.0438784 -0.372354 -0.267032 0.41272 0.192102 0.460412 -0.751692 0.0897236 -0.824813 0.421099 -0.183991 -0.851623 -1.00071 0.558147 -0.231467 0.754844 0.525323 -0.0121303 -0.104951 -0.766538 1.05842 0.717239 -0.759774 -0.543748 -0.264233 -0.517002 0.418537 -0.916898 0.254623 0.117825 0.56398 -0.803603 0.767178 -0.80452 0.775412 -0.0757847 0.698978 -1.06479 -0.895071 0.937826 0.452456 -0.031606 -0.924352 0.456984 -0.434577 -0.12763 0.33669 0.925962 0.884942 -0.767996 -0.879263 0.769883 -0.827233 -0.463022 -0.57552 -0.0416295 -0.129115 0.789138 -0.0717742 -0.795347 -0.0918751 -0.502934 -0.633424 -0.351095 -0.259323 -0.855312 0.59798 -0.500064 -0.83529 0.773991 -0.532266 0.665403 -0.399885 -0.457458 0.0533553 -0.0208779 0.450876 -0.598509 0.143975 0.0936019 -0.291872 0.260784 -0.0302246 -0.206361 0.670459 0.422652 0.487527 -0.455216 0.189649 -0.519662 -0.340799 -0.878125 -0.00614449 0.0944369 -0.252104 0.738711 0.18941 -0.669314 -0.682058 0.176701 -0.859766 -0.326381 0.167509 -0.315239 0.312205 -1.10387 0.869195 -0.480549 -0.496354 0.0592708 0.728693 0.11488 -0.775517 -0.254836 0.914467 0.902476 -0.814914 0.389339 -0.546101 0.282631 1.06112 0.199833 0.443216 -0.0696575 -0.711994 -0.799878 -0.32656 0.510388 -0.466879 -0.110021 -0.103167 -0.457388 0.565124 0.955747 0.219702 -0.340428 -0.823958 0.0704843 0.296898 -0.401312 -0.849396 -0.134899 0.633096 -0.749437 0.778291 0.641812 -0.600604 0.861477 0.0953661 -0.349081 0.222964 0.0704645 0.85667 -0.365493 -0.993266 -0.928084 -0.145428 -0.322462 0.612029 0.366687 0.584905 -0.443996 0.889297 0.140174 -0.289424 0.137525 0.919661 -0.368567 -0.714672 0.215428 0.0618574 -0.739202 -0.743999 -0.0938293 -0.416759 0.925437 -0.387728 -0.200837 0.859709 0.748555 0.459091 0.100277 -0.228023 0.266992 0.710269 -0.232719 0.364236 -0.43317 0.460181 -0.0130385 1.00842 0.130494 0.484995 0.875116 -0.840098 -1.10289 0.0072947 -0.880157 -0.236967 0.0441097 0.399049 0.921242 0.407474 0.580883 -0.115163 1.00005 0.558356 0.469968 -0.226358 0.422532 0.0837356 -0.746558 -0.485158 0.803029 0.505668 -0.756868 -0.341763 -0.146547 -0.144561 -1.01841 0.901065 -0.268408 0.332781 0.345717 -0.350725 0.357195 0.413944 0.453466 0.543806 -0.80714 -0.400021 -0.146325 -0.980058 -1.08017 -0.526133 -0.0753123 -0.965398 -1.04506 -0.609816 -0.262791 0.433212 0.592183 0.0366044 1.04251 0.558758 -0.462448 -0.789598 -0.731755 0.374527 -0.0166373 -0.594622 0.212764 0.72128 0.591681 -0.455145 -0.818659 0.11243 0.932214 0.746255 -0.397835 -0.80527 -0.705971 0.371869 -0.86795 -0.591033 0.941499 0.2253 -0.645029 0.975953 0.414449 0.19077 0.398056 -0.00621009 -0.831875 0.366555 -0.578178 -0.285349 0.649408 -0.325802 -0.868037 -0.418158 0.0618731 0.316284 -0.700949 -0.145108 0.894416 -0.39929 0.759156 0.896778 -0.65908 -0.693927 0.891855 -0.382425 0.774669 -0.982401 0.0320401 0.749537 0.0458038 0.453731 0.739056 -0.536927 -0.350602 0.115366 0.381863 -0.186057 -0.524694 0.831882 0.565581 -0.925062 -0.451724 0.715619 -0.283631 0.522848 0.0796315 -0.0985932 -0.80968 -0.0995874 0.544158 -0.929968 -0.425898 0.95439 -0.609446 -0.383142 -0.37425 -0.767869 -0.376834 0.5926 0.984811 0.632939 0.0719195 0.681608 -0.884186 0.774861 -0.217801 0.457294 -0.468668 0.189551 0.295326 -0.816809 0.18556 0.917779 0.75719 -0.916008 0.364834 -0.230958 -0.149194 0.642693 0.584644 -0.493719 0.715925 -0.724885 -0.634137 -0.942579 -0.101226 -0.0103683 -0.694488 0.510999 -0.377072 -0.715976 0.142692 0.702405 0.985802 0.259319 0.405955 -0.155047 -0.267061 0.945155 -0.916901 -0.991408 -1.00122 0.504587 0.819339 0.758588 0.499584 0.171813 -0.521678 -0.517759 -0.190769 -0.890129 -0.0350975 -0.507759 -0.607373 0.313747 -0.436269 0.309996 -0.676659 -0.111754 -0.205329 -0.0959369 0.143259 0.980605 -0.375654 0.149907 0.206627 -0.955577 0.895372 0.945739 0.976224 -0.955522 0.976783 -0.987363 0.514669 0.772501 0.774198 0.0346471 -0.0254845 -0.703988 0.49293 0.77089 -0.599225 -0.571357 -0.735479 -0.21027 0.794591 -0.159658 -0.896619 -0.823471 0.711894 -0.0854131 0.0666006 -0.141342 -0.101651 0.684713 0.943822 -0.924372 0.717632 0.860235 -0.952778 0.697549 0.915258 1.00395 0.715274 0.397102 0.813318 0.492215 -0.551404 -0.253168 0.778768 0.946473 -0.529546 -0.799393 -0.593214 -0.20828 0.00365799 -0.786721 0.612961 0.0820171 -0.677722 0.294565 0.977144 0.367299 -0.834785 -0.139729 0.0919457 -0.922493 -0.0496057 -0.237959 0.942869 0.0137356 -0.53442 0.88766 -0.016797 -0.767004 0.267596 -0.247134 0.678966 0.73013 0.467868 0.480214 0.708133 0.954337 0.638236 -0.91679 -0.205979 -0.33839 -0.691816 -0.664421 0.754549 -0.374904 0.593262 0.696221 0.928756 0.804882 -0.452117 0.141474 0.897234 0.522958 0.805414 0.816902 -0.526048 -0.650799 0.676344 0.456589 -0.455125 -0.0650336 -0.829494 -0.685204 -0.363651 0.697932 0.71736 -0.634566 0.665084 0.306464 -0.580979 -0.531353 -0.98463 -0.220979 -0.243711 0.665349 0.35536 -0.560286 0.436921 0.380882 -0.822731 -0.989568 -0.631736 -0.841025 0.435215 -0.768246 0.951906 -0.963239 -0.459005 0.605871 0.476785 0.0925918 -0.436193 0.715341 0.32818 0.24494 0.411318 -0.0131863 0.551208 0.0838311 -0.601745 -0.988964 0.569735 -0.459497 -0.240598 -0.706937 -0.81205 -0.871906 -0.276717 0.595419 0.452631 -0.0929498 0.604844 0.845024 0.0450199 0.0913146 -0.867742 0.0121926 0.177615 -0.41999 -0.346872 -0.388878 0.671403 0.197556 -0.657564 0.0433833 -0.665917 0.820412 -0.915068 0.932218 -0.112994 -0.505818 0.926459 -0.674546 -0.0924761 -0.33666 -0.390429 0.0595132 -0.199389 0.293697 -0.241657 -0.81118 -0.759779 -0.807274 -0.922622 0.346073 0.296676 -0.719942 -0.748739 -0.375067 -0.227494 -0.137381 0.0818638 -0.507644 0.950913 0.514946 0.569922 -0.708508 0.235808 0.61452 -0.791009 -0.86234 -0.868706 -0.861879 -0.531732 0.0325118 -0.15766 -0.0697815 -1.03188 0.606417 -0.63134 -0.224671 0.843926 -0.372385 0.0129348 0.892777 0.861812 -0.590676 -0.929835 -0.87647 -0.029836 -0.174189 0.0239633 -0.920089 0.318843 -0.0687595 0.618856 -0.0840017 0.253528 -0.104612 -0.521678 0.500383 -0.00834985 -0.394904 0.592885 0.363069 0.631136 -0.561213 -0.50947 0.743944 -0.991381 -0.113012 -0.589794 0.842014 0.36292 0.451624 0.78504 0.380253 0.823929 0.824887 0.563663 -0.153472 -0.314848 -0.486741 -0.119806 1.06922 0.440049 -0.468385 -0.160163 -0.341341 0.420192 0.340347 -0.936101 -0.676717 0.956037 0.759256 0.818695 0.590923 -0.794642 -0.698661 0.264705 -0.812399 0.150562 0.704659 -0.928124 -0.260552 0.133057 0.888458 -0.897212 -0.0531553 0.695717 0.548803 0.754939 -0.65686 -0.86404 -0.357845 -0.707536 0.538586 0.137762 0.17175 -0.756102 -0.482576 -0.504138 -0.595017 -0.133912 -0.582837 -0.843476 -0.248675 1.02329 -0.631926 0.0328118 0.254409 -0.451447 -0.912051 -0.0342768 -0.307882 -0.099599 -0.80457 -0.564051 -0.0516177 0.0995592 -0.871282 -0.445996 -0.132118 -0.618256 -0.295509 0.51832 -0.320167 -0.756414 -0.366044 0.719573 -0.434732 0.184291 -0.64236 -0.0775356 -0.961142 -0.108198 -0.0303163 -0.391496 -0.214162 0.547211 0.644966 -0.945401 1.00677 0.810636 -0.0176867 -0.441401 -0.358996 0.126261 0.0150413 0.597575 -0.780136 0.150586 -0.968777 0.0848336 0.507033 -0.156611 -0.281601 -0.783679 0.156496 0.316743 -0.884483 0.655695 -0.57887 -0.603258 -0.351428 -0.540791 0.193201 0.696357 0.164185 0.974927 0.165111 -0.249907 0.868016 0.306135 -0.421568 0.0198034 0.750459 0.208668 -0.878888 -0.2155 -0.0522768 -0.626702 0.908754 -0.0664661 0.464666 0.410442 0.719305 -0.957057 0.495936 -0.051577 0.292009 0.569597 -0.662667 0.719032 -0.921534 0.141479 -0.828336 0.286107 -0.139746 0.253304 0.210091 -1.01744 -0.979626 0.227466 0.301931 -0.459826 -0.692067 -0.0478215 0.785823 -0.63785 0.648651 -0.316684 -0.348651 0.63679 0.458894 -0.859322 0.00254022 0.297636 -0.799277 -0.422157 -0.798139 0.451307 -0.62672 -0.27307 0.138313 -0.57618 0.874411 0.319327 0.819405 -0.26209 -0.43277 -0.0761896 -0.317825 -0.43987 -0.808735 1.08462 0.0705388 -0.636972 -0.231746 -0.0515749 -0.254483 -0.310501 0.538832 0.363081 -0.746199 -0.0365417 0.474256 0.27574 -0.682466 0.537955 0.979744 -0.421844 0.125243 -0.646152 0.285826 -0.612107 -0.41414 0.0939367 0.56344 -0.36165 0.816458 -0.884324 0.374423 -0.434228 -0.370562 0.469065 -0.461371 0.812575 0.847986 0.439605 -0.246054 -0.352459 -1.02529 -0.790518 0.92865 -0.694797 0.58284 0.505638 0.563759 0.820849 0.136431 0.574619 -0.658949 -0.794252 0.966619 0.57036 -0.509601 -0.368514 -0.28212 -0.922618 0.0943044 -0.454064 -1.04017 -0.255125 0.186173 -0.197413 0.95251 0.734971 -0.402563 0.776591 0.458513 0.376881 -0.628347 0.235089 0.664561 -0.703359 0.292921 0.00328885 0.47322 -0.0731406 -0.270805 -0.223433 -0.642981 0.00815275 0.0507731 -0.423881 -0.436766 0.535404 0.254325 0.203431 0.511683 -0.690888 0.757743 0.678173 -0.0618189 -0.0777088 -0.495419 -0.168491 -0.291428 0.0820144 -0.529069 0.970271 -0.626964 -0.0505222 0.015416 -0.820272 0.149751 -0.374432 0.114919 -0.226813 0.785458 0.808972 0.788217 -0.520634 -0.212844 -0.164561 0.150651 0.361079 -0.405542 -0.565188 -0.523237 0.913437 -0.403523 -0.71434 0.591992 0.684803 0.0432932 -0.941586 -0.871695 0.88959 0.0481322 -0.0105898 0.736213 0.530111 0.793568 -0.133276 0.589061 0.0212515 0.398176 -0.313498 -0.969921 0.25465 -0.503096 0.883883 0.699781 0.573211 -0.504912 -0.392296 -0.35748 -0.0764322 0.149858 0.182108 -0.0583181 0.630958 0.399234 -0.510065 0.230521 -0.325303 -0.43006 0.600894 -0.441764 0.811755 -0.788961 -0.722803 0.225824 -0.809477 0.408571 -0.0705737 0.280895 -0.229496 0.544756 0.24965 0.793988 -0.966513 0.217779 0.48008 0.348641 0.728259 -0.725132 0.972253 -0.227807 0.362113 -0.0357752 0.949503 0.171359 -0.383859 -0.771618 -0.535901 0.275046 -0.305349 -0.66363 0.857462 -0.509936 -0.591414 -0.684989 0.711723 -0.683568 0.209463 -0.611385 0.480108 0.809336 -1.19622 -0.221077 0.59537 -0.855091 -0.88208 0.075618 0.474886 0.901563 0.292042 0.411901 -0.368184 -0.328193 -0.41445 -0.547103 0.753544 0.174563 -0.298577 -0.637467 -0.514936 0.417323 -0.640747 -0.782144 0.879226 -0.42029 -0.496654 0.432377 0.288256 0.689421 -1.09694 0.122999 0.484211 -0.697679 -0.810583 0.0627619 -0.67318 -0.43471 -0.855352 0.967942 -0.664807 0.289064 0.246958 -0.158029 -0.941593 0.690982 0.432638 0.731915 0.0184182 0.734808 -0.855931 0.558775 0.628957 -0.580648 0.771212 0.140961 0.334583 -0.804577 -0.263079 -0.659528 0.817424 -0.116744 0.538879 0.373579 0.0737403 0.705931 -0.337379 0.454683 -1.05615 -0.45107 0.112275 -0.608486 0.964738 -0.495364 -0.0989827 -1.07162 -0.695928 -0.600944 0.883814 0.339199 -0.632979 -0.978532 -0.241425 0.627768 -0.425326 -0.398485 -0.297738 0.626018 -0.310864 0.457954 0.973322 -0.195361 -0.689422 0.355868 -0.956896 0.545739 0.156535 -0.523167 -0.148204 0.226488 0.0475351 -0.878811 0.462005 -0.173923 -0.147796 -0.361906 -0.0120394 -0.0550869 0.069927 -0.14001 -0.802514 0.444713 -0.0975742 0.122649 -0.0720705 0.348674 0.721436 0.417283 -0.133575 -0.568529 -0.0305616 -0.179243 -0.0872807 0.127057 -0.715821 0.279776 -0.229655 0.444037 0.7423 0.674689 -0.377948 -0.230418 0.756134 -0.913445 0.712956 -0.540331 -0.327647 -0.247592 0.33444 0.867652 0.549447 0.741884 0.216509 -0.593104 -0.238921 -0.914534 0.673471 -0.6176 0.698038 -0.365891 -0.0575233 -0.239285 0.453863 -0.695428 -0.862149 0.733825 0.470747 0.0962252 0.18365 0.270084 -0.479885 0.845451 0.961619 -0.631511 0.863388 0.591402 -0.111007 -0.521399 -0.630142 -0.994883 -0.650436 1.04889 0.969602 0.486973 -0.664306 -0.486501 0.709104 -0.889126 0.00817336 0.23559 -0.14231 -0.980485 -0.964533 -0.757282 -0.780337 -0.848581 1.05032 0.839368 0.00497919 0.0889066 -0.159646 0.576286 -0.124878 -0.114969 -1.20505 -0.315754 -0.447166 -0.146689 0.308344 -0.0890224 -0.0351235 0.655099 -0.171248 -0.218493 0.270467 0.187556 0.159858 -0.387633 0.0476343 -0.691918 0.824875 -0.800248 -0.840806 0.693785 -0.774311 -0.568985 -0.906096 -0.845123 -0.904182 0.231052 0.222793 0.024192 -0.152865 -0.861625 0.910425 -0.106447 -0.157314 -0.539928 0.681877 -0.854554 0.381724 -0.565914 0.813424 -0.773855 0.22243 -0.0923967 0.409794 -0.635768 0.663272 -0.203437 -0.297355 0.59805 -0.405926 -0.377042 0.568438 -0.0215734 0.0727958 0.683902 0.127368 0.183458 -0.130897 -0.611466 -0.799226 0.721763 -0.535053 -0.840708 -0.371571 0.321588 -0.524278 -0.672997 0.434908 1.20771 -0.150495 0.235774 -0.810802 -0.93417 -0.836256 0.415422 -0.532438 0.818803 -0.6835 0.00755905 0.445756 0.0634373 0.69983 0.00704544 -0.991431 -0.135385 -0.313752 0.00426993 0.900926 0.597568 0.498114 -0.70383 0.277027 0.878541 -0.584448 0.870732 0.26876 -0.171653 -0.815176 -0.208912 -0.0711716 0.0476883 0.962686 0.0312905 0.38114 -0.833444 -0.364379 0.61771 -0.775848 -0.0449636 -0.391718 0.493633 0.869281 -0.699037 -0.410501 1.08979 -0.031626 0.154497 -0.00519845 -0.0136017 -0.305859 -0.377433 0.00198451 0.934243 -0.406061 0.556581 0.87523 0.83505 -0.490146 -0.946861 -0.378078 0.393033 0.151703 -0.470654 -0.728199 -0.938677 -0.430904 0.0293941 0.632636 -0.108748 0.835469 -0.733199 -0.825199 0.678554 -0.274063 -0.357912 0.789996 0.861208 0.79827 -0.0772556 -0.104775 -0.429679 0.34591 -0.86101 -0.527054 -0.882079 0.65508 -0.659644 0.964629 -1.03514 -0.592255 -0.459362 0.303488 0.39195 0.0673445 0.514564 0.747667 0.834369 -0.367657 0.578701 -0.658616 -0.706039 -0.973614 -0.348615 -0.879725 -0.222113 0.299105 0.908489 -0.388398 0.0683164 -0.175378 0.512751 0.566845 -0.564537 0.693606 -0.912985 -0.580686 0.250059 -0.621462 -0.379386 0.358768 -0.221363 0.0201363 -0.383918 -0.701217 -1.04003 -0.764767 -1.02047 0.848197 -0.283595 0.593785 -0.695095 0.0151795 0.615987 -0.0257099 0.157178 -0.601588 -0.89076 -0.0312102 0.0661347 0.342499 1.05191 -0.490973 -0.0923425 -0.702325 -0.844759 -0.0518755 -0.235417 0.444396 0.448995 0.247525 -0.19634 -0.908968 -0.737318 0.607182 -0.635366 -0.642217 0.707756 -0.505199 -0.777803 -0.589682 0.983647 -0.553466 0.420726 0.695 0.65062 -0.580047 0.985604 0.646684 0.402367 -0.0209094 0.112227 0.229504 0.452436 -0.972698 0.733656 0.640447 -0.0433119 -0.417984 0.0816174 -0.646646 0.773503 0.944513 -0.619863 0.995295 0.0791525 -0.330345 -0.338958 -0.118286 0.204077 -0.446894 0.207585 0.104354 0.0522462 -0.127253 -0.302197 -0.416131 0.457187 -0.265643 -0.642904 0.0292286 0.694643 0.274736 -0.495706 0.148855 0.490919 -0.772145 -0.21415 -0.540279 -0.390959 0.877626 -0.249532 -0.545535 0.688415 0.128191 -0.641063 0.118831 1.04747 -0.142984 -0.838378 -0.215795 0.366982 0.625006 -0.891747 -0.577861 -0.487161 -0.185229 -0.00404331 0.946488 0.44061 0.355351 -0.0185798 0.130852 -0.171725 0.528928 -0.69118 -0.82202 0.673783 0.0516843 -0.0494068 -0.595685 -0.0665104 0.540132 -0.127925 -0.276526 -0.487044 0.345192 0.767897 -0.454278 -0.853106 0.965607 0.572066 0.484537 0.587434 0.65921 0.813897 -0.899298 -0.705494 -0.191106 -0.937183 0.930408 -0.444028 0.0200406 -0.0848363 0.0675944 -0.642423 0.344224 0.475942 -0.773878 -0.505879 -0.699879 -0.331157 0.338241 0.784154 0.777247 -0.974208 -0.547455 -0.0906263 0.735976 0.0100841 0.0526605 0.809396 -0.516677 -0.466436 0.368755 -0.607184 -0.659216 0.47334 -0.441937 0.122063 0.503765 -0.412986 0.447482 -0.530458 0.65019 -0.15921 0.0331362 -0.0221806 -0.714719 0.255742 0.325184 -0.497768 1.06475 -0.271797 -0.750136 0.227743 -0.428915 -0.0557727 -0.720017 -0.445732 0.699812 0.216009 -0.627271 -0.60169 0.98484 0.75342 -0.558362 -0.544564 0.153258 0.0943867 0.790644 -0.381972 0.762862 0.432673 0.250005 0.345972 -0.799518 -0.71871 -0.735361 -0.623879 0.549903 0.703837 -0.11106 0.534297 -0.568172 0.103309 -0.0513247 0.425546 0.920952 0.358751 0.514177 0.674407 -0.188762 -0.85493 0.791163 -0.195781 0.907807 -0.788405 0.228526 0.080712 0.305913 0.0229772 0.839298 -0.0445131 -0.482677 0.0689058 -0.813622 -0.37088 0.350982 -0.223206 -0.120256 -0.0782785 -0.668492 0.971727 -0.797257 -0.303981 0.111114 0.286169 1.02817 -0.0488365 -0.308986 0.797404 -0.518092 0.499075 0.87115 -0.8733 -0.692152 0.574151 -0.603428 0.445601 -0.111542 0.969215 -0.454752 -0.49721 -0.511397 -0.0929962 0.819303 0.179335 0.662141 0.365784 0.669982 -0.250781 -0.914212 -0.958891 0.0652104 -0.538389 -0.207397 0.834017 0.576269 -0.231302 -0.213572 -0.467506 -0.605515 0.264438 0.911408 -0.588766 0.595673 -0.72658 -0.963424 0.783777 0.792772 0.0187504 0.715906 -0.692643 0.734292 -0.457386 0.3383 0.557005 0.609113 -0.00348798 -0.335902 0.202513 0.761867 -0.163132 0.384323 -0.575912 0.0689679 -0.500374 -0.749247 -0.0482021 -0.0495107 0.0459814 0.547358 0.654044 -0.660229 0.536671 0.784488 0.905196 0.684566 0.912369 0.860268 0.427935 0.123061 0.633394 0.927885 -0.315525 -0.81887 0.261138 -0.778983 0.859415 -0.720403 -0.0157547 0.146083 -0.78696 0.821 -0.48621 -0.52029 0.23146 -0.172738 -0.213246 -0.889718 0.711743 0.877112 0.773791 0.100888 -0.762848 0.313718 -0.131742 -0.896397 0.0750745 -0.229259 0.964333 -0.306934 0.564003 0.642836 -0.353835 -0.582624 0.775174 0.890787 -0.358555 0.3626 -0.809281 0.606719 -0.229271 -0.941702 0.385369 0.274139 -0.401647 -0.410241 0.991936 0.423521 -0.232844 0.642344 0.289558 -0.487083 -0.410365 0.546839 0.680576 0.509384 0.541107 -0.0784258 -0.533127 0.597481 0.419236 -1.22758 0.164421 -0.762672 -0.368465 0.000664652 -0.748709 0.0744134 -0.393466 -0.752159 -0.307154 0.54817 -0.590314 -0.892541 -0.379465 -0.00303342 -0.323947 -0.381728 -0.510258 0.384989 -0.737553 0.732229 0.968617 0.0256292 0.286837 0.746637 -0.455991 -0.088939 -0.316808 -0.0597884 -0.468359 -0.720652 0.0022609 0.72153 -0.477461 0.472474 -0.283278 -0.399131 -0.427105 0.269234 -0.0952875 0.279843 -0.334643 0.167215 0.479277 0.282635 -0.673504 -0.926898 1.03917 -0.184686 0.537606 -0.831087 -0.40736 0.431253 0.194694 0.834996 0.1893 0.727264 -0.220574 0.942363 -0.307504 0.291077 -0.822394 0.713987 7.88905e-05 -0.318283 0.310318 0.740513 0.344429 0.790654 0.140349 -0.749518 -0.0491964 0.734875 0.627736 -0.542012 0.0444838 0.867615 -0.384705 -0.0248094 -0.25133 -0.940648 0.164114 0.354841 0.449796 -0.68291 0.193013 -0.374512 -0.944147 0.982386 -0.574513 -0.245842 0.317967 -0.285678 -0.559761 -0.69632 0.350048 0.564201 1.00085 -0.283333 0.522769 -0.00154154 -0.0125928 -0.474188 -0.228762 -0.468619 -0.000936738 0.823206 -0.499532 0.520809 -0.221186 0.214327 0.488987 0.956101 -0.487046 -0.104985 -0.785375 0.771318 0.64638 -0.684644 0.684599 -1.02309 0.0453473 0.0191559 -0.0642847 0.519757 0.359772 -0.814083 0.190252 0.271085 -0.105989 -0.263918 -0.68681 0.838669 0.161258 -0.0338547 -0.5866 -0.824151 -0.0802597 -0.172388 0.693819 0.624121 -0.954778 0.323392 0.65586 -0.199038 -0.769302 0.913211 -0.578011 0.905744 -0.758111 -0.848403 1.01685 0.292178 0.177677 -0.279051 -0.199271 -0.534083 -0.0457449 0.942153 0.755577 0.852903 -0.299952 -1.01768 0.714312 0.837947 0.141767 -0.886169 1.11499 -0.929784 0.0841985 0.674092 0.812117 0.0533858 -0.0613386 0.42161 0.705839 0.0940043 0.331937 -0.661764 -0.0470913 0.593055 -0.699227 -0.0993244 -0.138575 0.452027 0.843049 0.689628 0.967729 -0.355572 0.741375 0.722527 -0.577527 -0.689353 0.756991 -0.882494 -0.86828 -0.100206 -0.657014 -0.874139 0.071524 0.300181 0.813766 -0.110008 -0.664178 -0.315209 -0.698425 -0.971485 0.787611 0.67584 -0.893166 -0.250751 0.243261 -0.445238 0.622256 -0.810854 0.929346 0.278417 0.787329 0.913208 1.05051 0.309056 0.692761 -0.516614 0.769919 0.466526 -0.307787 0.889053 -0.574406 -0.00717932 -1.01637 0.473922 -0.772131 0.807122 -0.641136 -0.369129 -0.582865 -0.33457 -0.432759 -0.730983 -0.64787 -0.361153 0.00012151 0.576244 0.360194 -0.332313 0.713912 0.182852 -0.983989 0.447077 0.13752 -0.928823 -0.111215 -0.255968 -0.523864 -0.343863 -0.767 0.195724 -0.454039 -0.365151 -0.820493 -0.462766 -0.905457 -0.568504 -0.653864 -0.538687 0.0885102 -0.173189 0.132758 0.648941 0.072842 0.425216 -0.48735 -0.89542 0.00884261 0.777579 -0.242921 -0.32498 0.0224318 -0.225041 -0.831287 -0.858026 -0.21126 0.0626305 -0.116923 0.275316 0.759959 0.121906 -0.515371 -0.736539 0.703308 -0.364054 -0.162581 0.832882 0.109224 0.143459 -0.692446 -0.918146 0.97027 0.423859 0.813 0.0772316 -0.108789 -0.708759 0.152728 0.912178 -0.904083 0.94667 -0.370825 0.094465 -0.308335 -0.208531 0.208673 0.480532 0.842368 -0.84202 -0.232702 0.602363 0.292183 0.238133 0.895343 0.0108099 0.87702 -0.262856 -0.16205 -0.0934945 0.843266 0.12797 0.0161918 0.850213 -0.429434 -0.177511 -0.0879671 0.452043 0.0910215 -0.899282 0.370899 0.213302 0.992035 0.990356 -0.697624 -0.348967 -0.19717 0.54623 -0.810375 -0.33394 0.69061 -0.0681971 -0.740537 -0.0685034 -0.86749 -0.875234 0.925198 1.02455 -0.143041 -0.196276 -0.10683 -0.295281 0.875734 0.914014 -0.427918 -0.528227 -0.22586 0.441665 0.960415 0.864985 0.488268 0.287484 0.085852 0.452665 0.297688 0.416862 -0.888228 -0.953044 -0.0710528 -0.737001 -0.24328 -0.355671 0.229508 -0.0077077 0.570653 0.38816 0.033287 0.415006 0.374717 0.973579 -0.730162 -0.721673 -0.335843 -0.881897 -0.830115 0.163464 -0.384186 -0.0748773 -0.39014 -0.438186 -0.224087 -0.895521 0.866664 0.87021 0.580729 0.152138 0.299601 0.705486 0.240238 -0.77702 -0.977798 0.954847 -0.129556 0.226492 -0.0660904 -0.579065 -0.376111 -0.96331 0.930404 0.952642 -0.994135 -0.909623 -0.789573 -0.34978 -0.727986 -0.556915 0.842529 -0.138179 0.338615 -0.51098 0.478598 -0.851802 -0.390464 0.285875 0.996877 -0.814334 -0.603786 0.242755 0.871173 0.673856 0.473063 0.882522 0.592643 -0.666249 0.17994 -0.432795 -0.247935 0.802912 -0.409944 -0.3971 0.734002 -0.433095 -0.273076 0.999037 0.303137 -0.0262816 -0.562656 0.091368 0.824424 0.799938 0.558084 0.315383 0.899261 -0.80584 -0.426853 0.839678 -0.634422 0.01594 0.149377 -0.715712 -0.324615 -0.403117 -0.778034 -0.729043 -0.104802 0.361554 -0.161618 0.662236 0.161482 0.410291 -0.75908 -0.108081 0.966518 -0.0433698 -0.103958 0.254225 0.94526 0.294005 -0.611939 0.812215 0.0612682 0.948152 0.110701 -0.0967331 -0.858123 0.706294 -0.240478 -0.513198 -0.306438 0.744839 -0.169564 0.389587 -0.476498 0.020281 0.65844 0.553942 -0.705366 -0.639096 0.0497278 0.54301 0.785345 0.288462 -0.578851 0.809181 -0.796251 0.256876 0.0955619 -0.818059 -0.438008 0.465296 0.984761 0.629898 0.228596 0.1172 -0.461801 0.52329 -0.0877785 0.326552 -0.87335 0.528792 0.182019 -0.158338 -0.0657655 0.714947 0.934927 -0.452855 0.144824 -0.76624 0.0248564 -0.79673 0.774084 -0.172677 0.334197 -0.761129 -0.305455 0.700025 0.472786 0.763479 0.860262 -0.898507 0.358637 0.873905 0.684007 -0.398559 0.0477449 -0.78179 -0.84723 0.744269 0.493814 -0.730995 0.25383 -0.398239 -0.106408 -0.847835 -0.490796 -0.149104 -0.306077 0.656955 0.0894595 0.657318 0.808227 -0.1681 -0.50395 0.277151 0.151722 0.140248 -0.00570686 -0.452553 -0.0582743 -0.16473 -0.456286 -0.78249 -0.274616 -0.724448 -0.214117 0.55692 -0.597305 -0.0978561 0.383917 -0.996282 0.0662615 -0.381446 -0.182125 -0.952083 -0.260328 0.3129 -0.0376764 0.449604 -0.0291287 1.02733 0.0895231 -0.222499 -0.188667 0.578577 -0.873412 0.900766 -0.287459 -0.00383082 -0.58173 0.731504 0.826055 0.129292 0.91204 -0.558761 0.34101 -0.281639 -0.939678 0.809147 0.557432 0.241221 0.883448 -0.315171 -0.907749 -0.312709 -0.292797 -0.00922466 -1.03181 0.578927 -0.755266 0.0213252 0.494151 0.335447 0.738522 -0.657606 -0.135129 0.738176 -0.629187 0.665547 -0.24961 -0.182062 0.38631 -0.411471 0.718017 0.276676 0.0249645 0.253819 1.14039 0.0690308 0.107841 0.670574 -0.425397 -0.0359032 -0.743465 -0.395472 0.829308 -0.0266663 0.435647 0.641022 -0.417526 0.710119 -0.384847 -0.86936 -0.215752 -0.323097 -0.390231 0.891533 -0.884144 -0.0103371 0.537992 -0.151574 1.02011 -0.0457459 0.4346 0.762445 -0.755155 -0.551814 -0.0520928 -0.759601 0.452128 -0.930163 0.826425 -1.00021 -0.134137 -0.909898 -0.266467 -0.302313 0.0446441 -0.830953 -0.632251 0.556377 0.76922 -0.0516181 0.70133 -0.205034 0.434212 -0.770386 -0.371596 0.450626 0.309513 -0.792827 -0.680345 0.225545 0.138365 0.733729 -0.163822 0.372933 -0.916073 0.906057 0.636192 0.617676 -0.97602 0.427886 0.869286 0.0694543 0.485214 -0.446277 0.830128 -0.452718 -0.232434 -0.791796 -0.902376 -0.469427 0.0733062 0.76289 0.26528 -0.471942 -1.01303 0.990008 0.737679 0.339181 -0.742661 -0.60179 -0.537892 0.317952 0.94178 0.363922 -0.326143 -0.886496 0.215517 -0.73262 0.874974 0.303782 0.733848 0.767758 -0.659784 0.502254 -0.796685 -0.763241 0.74786 0.00408818 -0.781092 0.836239 0.520654 0.23915 0.514586 -0.187179 0.781781 0.635204 -0.181897 0.732359 -0.0314466 0.0976524 0.610738 0.410846 -0.663044 0.899478 -0.0956533 0.0275898 -0.879208 -0.843999 0.253633 0.884729 0.191282 0.0688765 0.884988 0.665409 -0.688393 0.863408 0.783335 -0.845185 -0.131039 -0.990952 0.699402 -0.261739 0.416368 0.452722 0.219178 0.265899 0.0707544 -1.02549 0.132292 -0.938338 0.0509983 -0.0244811 0.516465 0.383426 -0.343954 -0.771677 -0.552444 -0.309001 -0.707366 0.508963 -0.363038 0.605769 -0.133678 -0.683357 0.249059 0.156041 -0.723843 -0.0264833 0.153668 0.11042 0.00668741 0.0469816 0.526798 -0.709616 -0.650348 -0.11934 0.72766 0.542759 -0.136946 -0.381533 0.521619 0.80798 0.567721 0.143603 0.034175 -0.480119 0.32772 0.454651 0.431688 0.613379 0.487811 -0.802915 0.202553 -0.797213 -0.329487 -0.539828 0.362352 -0.132159 0.361094 -0.457127 1.04127 -0.611116 0.315757 0.524762 -0.297557 -0.933949 -0.886046 -0.565886 0.490014 0.328531 0.102335 0.207433 -0.226615 -0.0519025 -0.736536 0.961875 0.2206 0.596808 0.586516 -0.288615 0.237293 -0.0794708 -0.116491 -0.326026 0.24655 0.620531 -0.148445 -0.627788 -0.609105 -0.734142 0.0771091 -0.8604 -0.448982 -0.363223 0.599918 0.427307 -0.282114 0.906975 0.857408 -0.745289 -0.195672 -0.121029 0.549629 0.656374 0.657622 0.741509 0.517863 -0.024915 0.415605 0.194057 0.595661 -0.361399 -0.524013 -0.446557 0.0558821 0.324047 1.00735 0.944641 0.868428 -0.724737 -0.950196 0.261056 -0.468437 -0.184875 0.60078 -0.744511 -0.769432 -0.771762 -0.831945 -0.893901 -0.335747 0.0515836 0.0816372 -0.791515 -0.484904 -0.259548 -0.983035 -0.780118 0.738214 0.275412 0.464002 0.398811 -0.883685 0.646567 0.936842 0.167612 0.0541568 0.910554 0.0787729 -0.122505 -0.7945 0.222874 0.772282 -0.433133 -1.12248 0.617217 0.0249593 -0.779801 0.923866 -0.16262 -0.681467 -0.601357 -0.787428 0.362549 -0.327478 -0.117447 -0.827156 -0.385595 0.205119 0.904297 -0.775838 -0.266805 0.298192 -0.793548 -0.625308 0.250814 0.279558 0.177204 0.182343 -0.564748 -0.494621 0.316995 0.401531 -1.02771 -1.04265 0.677531 0.539731 -0.0142737 0.847249 0.480304 -0.894596 -0.722329 0.71507 -0.510404 0.684946 -0.680696 0.146254 0.844576 -0.0289208 -0.60823 0.815935 -0.0894686 0.10202 -0.0410564 0.548949 0.699205 -0.720342 -0.337832 -0.0311334 0.415442 0.0972004 0.182557 -0.264512 -0.248201 0.304723 -0.246127 -0.573208 -0.0970989 0.73283 -0.900565 -0.544561 0.799232 -0.347053 -0.980423 -0.92982 -0.854 -0.711856 0.209852 -0.71268 0.301052 0.660293 0.944522 -0.45572 -0.228781 -0.00213255 0.6612 -0.700321 0.154522 -0.665512 0.216611 -0.332394 0.554259 -0.501732 0.405743 -0.835672 0.933199 -0.841097 -0.460022 -0.161367 0.908146 -0.00771961 0.21738 0.618232 0.639227 0.153981 0.863405 0.813846 0.749175 0.13924 -0.626329 -0.126714 -0.205593 -0.871177 0.247894 0.553068 0.133742 -0.0428293 0.813534 -0.585198 0.268191 0.0204958 0.0745574 -0.371964 0.507588 -0.597835 -0.0577452 0.44773 -0.354445 0.533461 -0.863047 -0.49095 -0.513385 0.629049 -0.78934 -0.540385 -0.188818 -0.884976 -0.770935 -0.610406 0.268209 -0.736486 0.268165 -0.950851 -0.61481 -0.576002 0.616922 0.426194 0.211124 0.601442 0.892011 -0.187835 -0.550593 -0.0889767 0.209616 0.863325 0.438369 -0.658572 0.428675 -0.878554 0.79118 0.789155 -0.390746 -0.699083 0.351692 -0.117487 -0.574206 -0.814921 0.00840338 -0.45705 -0.430733 -0.683766 -0.29201 0.832616 -0.770717 0.255923 -0.46619 0.94209 -0.118858 0.668886 0.345471 -0.417184 -0.507716 0.885357 0.557361 0.955457 0.786041 -0.0237081 -0.775614 0.212702 0.00545239 -0.842321 0.07602 0.678607 -0.601307 -0.816335 -0.596002 -0.112812 -0.533541 0.541651 0.348246 -0.0115506 0.842658 -0.716888 -0.0508747 -0.814283 0.333602 0.325568 -0.928491 -0.966778 0.107077 0.440076 -0.459105 0.677763 0.282832 -0.86425 0.655397 0.0646784 0.174348 0.837631 -0.71117 -0.77223 -0.956965 0.165865 0.900243 -0.355557 0.67609 -0.451366 0.455021 -0.791941 -0.959962 -0.453958 0.31967 0.889606 -0.273472 -0.726818 -0.916344 -0.891598 0.559241 -0.80962 -0.86746 -0.337176 0.675869 -0.257931 -0.681501 -0.152736 -0.0504119 -1.02642 -1.04027 -0.770334 0.843747 -0.75123 -0.702177 1.04192 0.547606 -0.735594 -0.567339 0.233528 -0.220492 0.691803 0.460198 -0.305755 -0.691924 -0.22576 -0.425533 0.0424639 0.0420241 -0.475792 0.0823877 -0.236788 -0.163993 0.449386 0.27547 -0.529531 -0.927901 0.477682 0.454123 0.0165794 0.640298 0.342409 0.108379 0.592902 0.774757 0.366803 0.537205 0.363478 0.563254 -0.974029 -0.435605 -0.761037 0.715646 -0.934084 -0.1763 -0.98042 -0.0626498 0.473791 0.0108236 0.891115 -0.944643 -0.900416 -0.527185 -0.0340741 0.480778 0.82928 0.463127 0.632661 0.396088 -0.081109 -0.29815 0.0295478 -0.437172 0.734805 -0.384353 -0.82782 0.072631 -0.876342 0.500346 -0.00966821 -0.789248 -0.835809 -0.14282 0.765291 -0.781677 0.788743 0.957585 0.0797563 0.258265 0.0755589 -0.0167979 0.387216 0.321968 0.424338 -0.802272 -0.0928021 0.205937 0.815317 -0.444943 -0.404226 -0.21303 0.134987 0.635708 0.158823 -0.0893568 -0.77196 0.327889 1.06065 -0.515037 -0.030303 -0.304849 -0.297327 -0.214861 0.370192 -0.348632 0.242585 0.213985 -0.376285 -0.674331 -0.499935 0.667222 0.23689 0.868487 -0.000300175 -0.27695 -0.766748 0.839936 0.916964 -1.00355 -0.551241 -0.517959 -0.0962407 0.777678 -0.888864 0.9736 -0.452436 -0.54681 0.142074 -0.445898 -0.135749 -0.828861 0.170727 0.580702 0.190694 -0.3598 -0.767984 -0.583966 0.865621 -0.162789 -0.390406 -0.684458 -0.504307 0.996306 -0.513292 0.497993 -0.410393 -0.394557 0.214338 -0.370493 -0.416618 0.858673 0.206864 0.456369 0.524056 0.286091 0.356693 -0.937343 0.688564 -0.339742 -0.346026 -0.488065 -0.158667 0.820845 -0.871669 0.885045 -0.542529 -0.496959 -0.457413 -0.825137 0.220447 -0.141403 -0.444227 0.715503 0.136155 -0.215612 0.206121 0.831479 0.474938 -0.382495 -0.530025 -0.866489 -0.529364 0.703419 0.512823 0.999629 -0.0867432 -0.215295 -1.06988 -0.451152 0.753958 -0.269902 0.161855 -0.736289 -0.731244 0.344332 -0.797516 0.0226627 0.723385 -0.321381 0.393278 -0.0711291 0.813861 -0.920505 -0.385038 -0.209435 0.061586 0.872383 -0.208255 -0.46369 -0.514992 0.296009 -0.469275 -0.035031 -0.107214 -0.980101 0.00603548 0.80515 -0.230398 0.0706112 -0.405848 -0.655335 0.798845 0.28852 -0.42659 -0.625958 -0.0704949 -0.222217 0.400674 -0.323499 0.444096 -0.242097 0.559628 0.248531 -0.156159 -0.750789 -0.819055 0.886762 -0.800271 -0.201192 -0.547262 -0.422471 -0.593176 0.298473 0.508057 0.160953 0.00737116 -0.341244 -0.243154 0.870834 0.544985 0.349067 -0.874646 0.374759 0.0401505 -0.378756 0.741122 0.927226 0.367493 0.130155 -0.540399 -0.304569 0.85281 -0.82475 -0.645493 -0.267988 -0.814595 -0.522997 -0.5334 -0.458323 0.348018 0.0931645 0.278093 0.668901 -0.85484 -0.297121 -0.254003 0.263412 0.216683 0.704495 0.0853703 -0.361042 0.0955763 0.198448 -0.823698 -0.975328 0.818542 0.885701 1.17063 0.0163571 0.0499713 -0.602306 -1.10338 -0.0632184 -0.245047 -1.0502 0.622202 0.157529 -0.437246 -0.696057 0.712206 0.816276 0.394347 -0.185812 0.47583 0.714275 0.574211 -0.906756 -0.506638 -0.29991 1.03033 0.798077 0.474405 -0.112205 -0.219826 0.788038 0.0330698 -0.158266 0.706279 -0.0433473 -0.906644 -0.381062 0.531859 -0.889553 0.56264 -0.575287 -0.740961 0.342852 0.477854 -0.268911 0.645087 0.142054 -0.559142 0.0514904 -0.95728 0.851357 -0.345152 0.617552 0.915962 0.35956 -0.381347 0.938781 0.178902 -1.29819 -0.16919 -0.778341 0.80885 0.61024 0.0731581 0.535961 -0.443724 0.132246 -0.708186 -0.930506 0.249917 0.962876 -0.699363 0.512141 0.315277 0.545089 -0.749979 -0.0617382 0.190437 -0.106871 0.935489 0.046007 -0.424107 -0.492179 -0.502018 -0.465061 0.892836 0.190072 -0.708893 0.102366 0.261861 -0.0862103 0.315242 -0.0583622 -0.492861 -0.597743 -0.678941 -0.0997647 0.490954 -0.24244 0.286946 -0.238032 -0.582426 0.53414 -0.758803 -0.970938 0.410965 -0.49349 0.247256 -0.603212 0.250725 -0.0276755 0.385916 1.04776 0.533134 -0.959374 -0.623315 0.354045 0.143396 -0.349567 -0.394928 -0.805194 0.570441 0.846876 0.220504 -0.797948 -0.723774 0.675325 -0.0704845 0.775712 -0.557079 -0.824746 -0.464173 0.136588 0.808344 -0.178253 0.188959 0.121446 0.324803 -0.872468 0.429217 -0.422383 0.143375 -0.141292 -0.829599 -0.411552 0.208941 -0.2699 -1.00992 -0.955922 0.176418 -0.263529 -0.574256 0.00550646 -0.362575 0.501589 0.13555 -0.120886 0.187084 -0.78077 -0.407426 0.74011 -0.490092 0.234457 -0.201562 -0.692185 -0.954228 1.00581 0.383359 0.395645 -0.85208 -0.0999208 1.06085 0.291388 0.65515 -0.582695 1.13219 -0.213139 0.168441 -0.912332 -0.163176 -0.37736 -0.115626 0.0143616 0.638847 0.557571 -0.488216 -0.277355 -0.553642 0.677644 -0.0464375 0.130956 0.108103 0.498167 -0.589989 -0.931684 0.757155 -0.615017 -0.854974 0.24433 0.712292 -0.767944 -0.883307 0.73324 0.444924 0.853095 -0.913684 0.553462 -0.478395 0.283538 0.733929 0.209503 0.890419 -0.424825 -0.796162 0.550143 -1.00579 -0.41874 -0.792397 -0.431768 -0.436407 0.200221 0.364112 0.608789 -0.423126 -0.93789 0.940116 -0.575349 -0.470537 0.974273 0.627846 -0.752192 -0.862237 0.947192 0.968728 0.647563 0.588435 -0.68347 0.183225 -0.910537 0.395259 -0.141121 0.304683 0.206055 0.425554 0.573373 -0.191158 0.67461 -0.860533 0.0525514 -0.875356 -0.408746 -0.695562 0.789214 -0.605989 -0.071602 0.871123 -0.859845 0.349963 -0.641554 -0.904063 -0.064384 -0.397012 -0.791331 -0.466285 -0.527058 0.898362 -0.8381 -0.392276 0.0460069 -0.743381 -0.933505 0.814502 0.644423 0.375142 0.317241 0.220355 -0.80097 -0.121018 0.364438 0.30101 -0.0337177 -0.986452 0.487685 -0.161185 -0.665467 -0.599147 -0.281997 -0.532099 0.779845 0.065511 -0.445608 -0.277884 0.669964 -0.392375 0.502737 -0.506287 -0.355914 0.729477 -0.0701547 0.880317 -0.885852 0.0212266 0.622078 0.787492 -0.594397 -0.10922 -0.0609774 -0.449324 0.744138 -0.652922 0.77651 -0.336345 -0.63277 0.298417 0.593276 -0.378284 0.692222 -0.65216 0.264261 0.335076 0.366782 0.796852 -0.774075 0.0142753 -0.534 0.608601 0.322585 0.0994753 0.331432 -0.624621 -0.246465 0.414575 0.28636 -0.595029 0.214331 0.606774 0.152782 -0.934965 -0.754482 0.0381803 -0.540501 -1.09983 0.616178 -0.129246 0.278559 0.457077 0.448171 -0.0221219 0.688777 -0.397038 -0.647685 -0.0417855 -0.510569 -0.5137 0.97792 -0.230285 -0.878297 0.313779 0.868208 0.415415 0.554544 -0.376 -0.220893 -0.184733 -0.0406443 -0.934236 -0.281366 -0.946116 -0.799289 -0.210949 0.0579807 -0.317667 -0.219003 -0.161579 0.451134 -0.923591 -0.969755 -0.108476 0.0537744 0.632068 0.459831 0.374119 -0.388221 0.735109 0.811913 -0.301133 -0.459271 0.946848 0.905279 -0.690871 0.41829 0.477477 0.0542593 -0.696647 -0.705762 1.02396 -0.659246 -0.15319 -0.916206 -0.415298 0.710783 0.166781 0.216764 -0.554091 0.904823 -0.350771 -0.489739 0.995942 0.564368 0.54914 0.621846 0.0573382 -0.0770671 -0.859971 -0.114876 -0.121018 -0.201679 0.436071 -0.266575 -0.172899 0.89413 -0.780976 -0.77647 -0.0317028 -0.471967 -0.492184 -0.0686014 -0.162715 0.331699 0.0297758 0.415835 -0.0784074 -0.820514 -0.385192 0.390088 -0.931149 0.292044 0.930346 -0.770304 -0.25008 0.485819 0.733795 0.868865 -0.571009 0.9355 -0.24808 0.210679 -0.227012 -0.851941 -0.912314 0.501759 -0.991614 -0.778739 0.711177 -0.00966802 -0.301596 -0.726179 0.814621 0.603478 0.53539 -0.0663145 -0.037023 -0.53174 0.0399589 0.624723 1.02677 0.231754 -0.0536454 0.963062 0.318241 0.700246 0.344448 0.194763 0.53343 0.726892 -0.0561586 -0.728932 -0.00644561 0.745786 -0.578346 -0.00290852 0.23938 -0.55042 0.188883 -0.0813062 0.42522 0.9534 0.149511 0.331816 0.56463 -0.393899 -0.755744 -0.462032 0.148262 0.388321 -0.824885 0.068022 -0.393132 0.0551917 -0.0657191 0.930807 -0.212221 -0.718604 -0.037807 -0.660133 -0.985054 0.913027 -0.356287 0.00558164 0.675156 0.0314649 0.952651 -0.114371 0.500768 0.172498 0.836696 -0.11306 0.13925 -0.129972 -0.777279 -0.312994 0.54832 -0.503298 0.268003 -0.33171 0.855984 0.456902 0.76769 -0.500907 -0.452035 -0.310142 -0.593007 0.329363 -0.0423905 0.354662 0.664944 0.0136182 0.276169 -0.695475 1.03485 -0.0665758 0.367247 0.991435 0.818772 -0.128335 0.157689 0.573956 0.719645 -0.721559 -0.527379 0.976184 -0.0126606 -0.986979 -0.548303 -0.751251 -0.341396 -0.647509 0.705914 -0.538128 -0.208168 -0.754953 0.133391 0.161748 0.590057 -0.88844 -0.429601 0.272305 0.11444 0.819883 0.576649 0.0971622 -0.284314 -0.0923738 0.0711557 -0.449667 0.772118 -0.737719 -0.917742 0.498855 -0.502366 -0.438203 0.477388 0.501636 -0.38475 0.906825 0.786687 0.270859 -0.803982 0.458887 0.727352 -0.0337066 0.713999 -0.118163 -0.868265 0.25381 -0.0323355 -0.271836 -0.427271 -0.896189 -0.496875 -0.820913 0.19597 0.349943 -0.0871495 -0.794403 0.770801 -0.233007 -0.540454 0.86573 -0.712757 -0.0505552 -0.609282 0.707768 -0.502212 -0.00166504 0.624723 -0.711553 -0.743261 0.890152 0.656271 0.992405 -0.182461 0.444882 -0.0724069 -0.00755301 -0.201008 0.849909 0.638899 0.273488 0.936137 -0.829115 0.400058 0.125798 0.43653 -0.60249 0.418268 0.238273 0.193986 0.823227 -0.0101136 0.439716 -0.14165 0.475895 0.215521 0.339955 -0.553023 -0.129568 0.70511 -0.262041 -0.307484 0.356024 -0.261752 0.504027 -0.245052 0.545228 -0.52473 0.448114 0.409337 -0.957128 -0.205949 0.362837 -0.641863 -0.836634 -0.502294 0.786203 -0.426467 0.841305 -0.0758891 0.752839 0.696575 0.990834 0.270337 -0.482597 0.465643 -0.459116 0.867652 0.958755 0.29615 0.519103 -0.338823 0.983277 -0.127461 0.277748 0.37467 0.675272 -0.121645 0.984127 0.204195 -0.728555 -0.871125 0.981267 0.597392 -0.555506 -0.827995 -0.890128 -0.777157 -0.21758 0.918034 0.156499 -0.507159 0.612575 0.11052 0.730367 -0.788587 -0.42257 -0.841114 -0.941834 -0.576189 0.574534 0.580268 0.0395778 0.485538 -0.458416 -0.673107 -0.0604586 -0.88571 0.166952 -0.0409681 0.343505 0.476036 0.111759 0.319576 0.279182 0.500545 0.464192 0.179004 0.670405 -0.902599 0.101732 -0.117578 -0.389868 -0.330849 -1.02384 -0.580838 -0.128158 -0.434773 -0.35426 -0.0862464 0.142452 -0.968144 -0.488358 -0.91161 0.618801 -0.00658189 -0.588943 -0.305798 0.0878115 0.619123 0.530004 -0.612134 0.125646 -0.307153 0.731197 -0.763927 -0.908578 0.232848 0.494247 0.825556 0.362435 -0.602435 -0.202487 -0.913628 0.211081 -0.281013 -0.485484 -0.94312 0.301518 0.207189 0.00428858 -0.678318 0.305312 0.508505 -0.596822 -0.0528757 -0.561577 -0.119356 0.475455 0.532124 -0.717168 0.0149406 0.971193 0.6512 0.627228 0.713684 0.879433 0.72102 -0.125628 0.203136 0.523923 -0.741046 0.74712 -0.697272 -0.708602 -0.066053 -0.0427033 -0.144087 0.0170126 -0.722668 -0.977609 0.999197 -0.448685 0.298516 0.403313 -0.193996 -0.757218 0.909192 0.795312 0.76763 0.42079 -0.653612 -0.20774 0.356534 0.934978 -0.565004 0.0837925 0.755463 -0.894241 0.887771 0.061329 0.803059 -0.815936 -0.268713 0.925064 -0.460221 0.739776 -0.255256 0.367483 -0.2917 0.248572 0.378011 -0.317924 0.703415 -0.138088 -0.878653 -0.357869 -0.100335 -0.908994 -0.530398 -0.2832 0.465394 -0.254299 0.492253 -0.0271929 -0.117278 1.15781 0.882184 -0.535642 -0.950879 0.815083 0.56966 0.539488 0.913907 -0.66106 0.6081 -0.488159 -0.908111 -0.469774 0.865057 -0.282923 0.624409 0.190132 0.511514 0.460286 0.82225 0.524524 -0.854239 -0.100049 0.650227 -0.41804 0.509117 0.142701 0.511502 0.0566722 0.966351 -0.960326 -0.0093374 0.948229 -0.436086 -0.000122052 0.568743 -0.651013 -0.228696 0.640895 -0.48836 -0.529081 -0.866352 -0.413772 0.0360533 -0.973009 0.406808 -0.152174 0.213338 -0.0858693 -0.812841 0.187204 -0.357458 -0.694452 -0.921979 -0.849269 0.00130218 0.662092 0.426234 -0.68027 -0.272102 0.385214 -0.602116 0.666212 0.161125 -0.044097 -0.326115 -0.16138 0.0593251 0.450031 -0.649716 0.680323 0.921686 -0.416753 -0.641719 -0.069447 -0.37544 0.559268 0.78781 0.835755 -0.628711 -0.854186 0.0592031 -0.00363739 -0.411921 0.130441 0.438638 0.567566 -0.224009 -0.299163 0.81674 0.51514 -0.963422 -0.750267 0.168691 0.271542 0.427123 0.826185 -1.08238 -0.701064 0.166684 -0.433221 0.823774 0.169409 0.055445 -0.67884 -0.842539 0.759285 0.64804 0.963452 0.592331 -0.885487 -0.898406 0.0503244 0.174904 -0.264786 0.822412 -0.540278 -0.713657 -0.289751 0.458253 -0.212439 -0.934349 0.134842 -0.240901 0.23025 -0.458914 0.655665 -0.00145127 -0.381891 -1.05691 -0.685039 0.206116 -1.10337 0.475833 -0.85914 -0.805208 0.465038 -0.868266 0.762273 0.426309 0.676233 0.49352 0.630716 -0.601165 0.0474943 -0.428173 -0.780824 0.623639 -0.220912 -0.196104 -0.288433 -0.0367023 -0.143132 0.995285 0.413123 -0.813233 -0.290724 0.183124 0.132081 0.186885 0.282121 0.430147 -0.744811 0.338468 -0.0717746 -0.243749 0.423053 -0.412838 -0.115024 -0.276589 -0.839699 -0.359438 -0.265908 0.943738 0.180192 -0.587297 -0.572863 0.295703 0.620403 0.197199 -0.907232 -0.59977 -0.899159 -0.0621485 -0.622777 0.52289 0.0142878 -0.223188 -0.293006 -0.95987 -0.508672 0.961269 0.580982 -0.314128 -0.157012 -0.557581 0.211341 -0.256552 0.024555 -0.672926 0.886366 0.207388 -0.231009 -0.0443575 0.142377 0.892843 0.0669706 0.555524 0.0529342 -0.5255 -0.242959 0.00809241 -0.255051 -0.136204 -0.92742 0.634181 -0.655456 -0.125066 -1.05674 0.0455429 0.206924 -0.483488 0.0147011 -0.425153 0.00764151 -0.708523 0.247794 -0.904952 0.0918073 -0.734832 -0.816295 -0.14212 0.522196 -0.0717017 0.846957 -0.364903 -0.345653 -0.0963242 -1.1091 1.09134 1.12876 -0.126888 -0.11592 -0.150753 0.707737 -0.00646633 -0.771482 -0.946285 -0.937577 -0.587866 0.0905047 0.276629 -0.27711 -0.901423 -1.31273 0.923928 -0.583027 0.295501 0.875573 0.133502 0.518346 -1.19012 -0.877163 0.0441632 -0.0171543 -0.724921 0.595811 0.86065 0.012286 0.751054 0.463436 -0.38254 -0.516968 -0.60556 0.263958 -0.601415 0.690219 0.421971 -0.630489 0.413893 0.922454 0.450274 -0.376123 -0.335702 0.565753 -0.202939 -0.415554 0.765444 -0.91489 -0.510857 0.330509 0.539782 -0.362187 0.595707 0.0784713 0.756878 0.69341 -0.731206 0.189144 -0.296545 -0.975979 -0.298136 0.273013 -0.355115 0.0977883 -0.453926 -0.0507828 -0.73995 1.04112 0.0639329 1.01298 0.812889 -0.249588 -0.206511 -0.798496 -0.716968 0.436769 0.283448 -1.00359 1.01991 0.724767 0.597967 0.405975 -0.76339 0.189566 0.743577 0.750249 -0.133114 -0.924618 -0.465428 0.577937 -1.0305 0.365285 -0.0375618 -0.2992 -0.215571 0.380677 0.568953 -0.296366 0.291881 -0.0457273 0.188082 0.243562 0.527316 0.420945 0.920525 -0.975683 0.150215 0.128226 -0.701298 -0.346695 -0.103865 0.771035 0.838183 0.158642 0.0975655 0.428009 -0.088679 0.365141 1.03233 1.31228 0.49862 1.23945 0.495561 -0.6798 -0.506558 -0.625037 0.883782 -0.865668 0.266263 0.0670627 0.0882348 -0.89772 -0.698945 -0.64473 -0.571569 -0.840814 -0.15526 0.251041 0.231359 -0.022303 0.571652 -0.793946 0.0452604 0.747042 0.637029 -0.929486 0.576889 -0.590389 -0.975534 0.112176 -0.735487 0.256828 -0.0937031 0.716247 0.862153 0.538007 0.907067 0.534939 0.478923 0.251043 -0.399246 -0.496755 0.569431 -0.0892272 0.461669 0.736476 -0.051375 -0.701814 0.0178896 -0.458376 0.250325 -0.104564 -0.133432 -0.0212832 -0.290118 -0.651072 -0.46476 -0.965557 -0.238271 -0.43033 0.177316 -0.0265914 -0.942259 -0.910899 -0.333155 0.90154 0.323782 -0.218911 0.249464 0.0968463 0.732773 -0.996413 0.499769 0.177054 -0.0746328 0.0988439 0.364678 -1.15268 1.05552 -0.800591 -0.376154 0.0439548 0.0910276 0.474163 0.233998 0.754326 0.80421 